digraph Tree {
node [shape=box, style="filled", color="black"] ;
0 [label="X[19] <= 1.088\ngini = 0.667\nsamples = 500\nvalue = [168, 167, 165]", fillcolor="#e5813901"] ;
1 [label="X[0] <= 1.696\ngini = 0.648\nsamples = 365\nvalue = [142, 142, 81]", fillcolor="#e5813900"] ;
0 -> 1 [labeldistance=2.5, labelangle=45, headlabel="True"] ;
2 [label="X[10] <= -1.556\ngini = 0.636\nsamples = 267\nvalue = [127, 73, 67]", fillcolor="#e5813947"] ;
1 -> 2 ;
3 [label="X[13] <= 2.656\ngini = 0.475\nsamples = 97\nvalue = [65, 6, 26]", fillcolor="#e581398c"] ;
2 -> 3 ;
4 [label="X[5] <= -3.039\ngini = 0.384\nsamples = 80\nvalue = [61, 5, 14]", fillcolor="#e58139b6"] ;
3 -> 4 ;
5 [label="X[3] <= -2.421\ngini = 0.551\nsamples = 15\nvalue = [6, 1, 8]", fillcolor="#8139e539"] ;
4 -> 5 ;
6 [label="gini = 0.0\nsamples = 4\nvalue = [4, 0, 0]", fillcolor="#e58139ff"] ;
5 -> 6 ;
7 [label="X[3] <= 0.71\ngini = 0.43\nsamples = 11\nvalue = [2, 1, 8]", fillcolor="#8139e5aa"] ;
5 -> 7 ;
8 [label="gini = 0.0\nsamples = 7\nvalue = [0, 0, 7]", fillcolor="#8139e5ff"] ;
7 -> 8 ;
9 [label="X[21] <= -0.121\ngini = 0.625\nsamples = 4\nvalue = [2, 1, 1]", fillcolor="#e5813955"] ;
7 -> 9 ;
10 [label="gini = 0.0\nsamples = 2\nvalue = [2, 0, 0]", fillcolor="#e58139ff"] ;
9 -> 10 ;
11 [label="X[21] <= 1.351\ngini = 0.5\nsamples = 2\nvalue = [0, 1, 1]", fillcolor="#39e58100"] ;
9 -> 11 ;
12 [label="gini = 0.0\nsamples = 1\nvalue = [0, 0, 1]", fillcolor="#8139e5ff"] ;
11 -> 12 ;
13 [label="gini = 0.0\nsamples = 1\nvalue = [0, 1, 0]", fillcolor="#39e581ff"] ;
11 -> 13 ;
14 [label="X[11] <= 1.358\ngini = 0.272\nsamples = 65\nvalue = [55, 4, 6]", fillcolor="#e58139d4"] ;
4 -> 14 ;
15 [label="X[25] <= -11.746\ngini = 0.137\nsamples = 55\nvalue = [51, 1, 3]", fillcolor="#e58139eb"] ;
14 -> 15 ;
16 [label="X[2] <= -0.354\ngini = 0.444\nsamples = 3\nvalue = [1, 0, 2]", fillcolor="#8139e57f"] ;
15 -> 16 ;
17 [label="gini = 0.0\nsamples = 2\nvalue = [0, 0, 2]", fillcolor="#8139e5ff"] ;
16 -> 17 ;
18 [label="gini = 0.0\nsamples = 1\nvalue = [1, 0, 0]", fillcolor="#e58139ff"] ;
16 -> 18 ;
19 [label="X[9] <= -3.253\ngini = 0.075\nsamples = 52\nvalue = [50, 1, 1]", fillcolor="#e58139f5"] ;
15 -> 19 ;
20 [label="gini = 0.0\nsamples = 1\nvalue = [0, 1, 0]", fillcolor="#39e581ff"] ;
19 -> 20 ;
21 [label="X[21] <= 1.977\ngini = 0.038\nsamples = 51\nvalue = [50, 0, 1]", fillcolor="#e58139fa"] ;
19 -> 21 ;
22 [label="gini = 0.0\nsamples = 50\nvalue = [50, 0, 0]", fillcolor="#e58139ff"] ;
21 -> 22 ;
23 [label="gini = 0.0\nsamples = 1\nvalue = [0, 0, 1]", fillcolor="#8139e5ff"] ;
21 -> 23 ;
24 [label="X[12] <= 0.109\ngini = 0.66\nsamples = 10\nvalue = [4, 3, 3]", fillcolor="#e5813924"] ;
14 -> 24 ;
25 [label="X[13] <= -1.111\ngini = 0.49\nsamples = 7\nvalue = [4, 3, 0]", fillcolor="#e5813940"] ;
24 -> 25 ;
26 [label="gini = 0.0\nsamples = 3\nvalue = [3, 0, 0]", fillcolor="#e58139ff"] ;
25 -> 26 ;
27 [label="X[12] <= -0.279\ngini = 0.375\nsamples = 4\nvalue = [1, 3, 0]", fillcolor="#39e581aa"] ;
25 -> 27 ;
28 [label="gini = 0.0\nsamples = 3\nvalue = [0, 3, 0]", fillcolor="#39e581ff"] ;
27 -> 28 ;
29 [label="gini = 0.0\nsamples = 1\nvalue = [1, 0, 0]", fillcolor="#e58139ff"] ;
27 -> 29 ;
30 [label="gini = 0.0\nsamples = 3\nvalue = [0, 0, 3]", fillcolor="#8139e5ff"] ;
24 -> 30 ;
31 [label="X[25] <= 0.895\ngini = 0.443\nsamples = 17\nvalue = [4, 1, 12]", fillcolor="#8139e59d"] ;
3 -> 31 ;
32 [label="X[11] <= -1.007\ngini = 0.255\nsamples = 14\nvalue = [1, 1, 12]", fillcolor="#8139e5d8"] ;
31 -> 32 ;
33 [label="gini = 0.0\nsamples = 1\nvalue = [1, 0, 0]", fillcolor="#e58139ff"] ;
32 -> 33 ;
34 [label="X[29] <= 6.077\ngini = 0.142\nsamples = 13\nvalue = [0, 1, 12]", fillcolor="#8139e5ea"] ;
32 -> 34 ;
35 [label="gini = 0.0\nsamples = 12\nvalue = [0, 0, 12]", fillcolor="#8139e5ff"] ;
34 -> 35 ;
36 [label="gini = 0.0\nsamples = 1\nvalue = [0, 1, 0]", fillcolor="#39e581ff"] ;
34 -> 36 ;
37 [label="gini = 0.0\nsamples = 3\nvalue = [3, 0, 0]", fillcolor="#e58139ff"] ;
31 -> 37 ;
38 [label="X[29] <= -0.823\ngini = 0.653\nsamples = 170\nvalue = [62, 67, 41]", fillcolor="#39e5810c"] ;
2 -> 38 ;
39 [label="X[3] <= 0.64\ngini = 0.568\nsamples = 63\nvalue = [37, 15, 11]", fillcolor="#e5813975"] ;
38 -> 39 ;
40 [label="X[23] <= 0.958\ngini = 0.404\nsamples = 44\nvalue = [33, 7, 4]", fillcolor="#e58139b3"] ;
39 -> 40 ;
41 [label="X[16] <= -2.592\ngini = 0.133\nsamples = 28\nvalue = [26, 2, 0]", fillcolor="#e58139eb"] ;
40 -> 41 ;
42 [label="gini = 0.0\nsamples = 2\nvalue = [0, 2, 0]", fillcolor="#39e581ff"] ;
41 -> 42 ;
43 [label="gini = 0.0\nsamples = 26\nvalue = [26, 0, 0]", fillcolor="#e58139ff"] ;
41 -> 43 ;
44 [label="X[17] <= 2.025\ngini = 0.648\nsamples = 16\nvalue = [7, 5, 4]", fillcolor="#e581392e"] ;
40 -> 44 ;
45 [label="X[16] <= 2.726\ngini = 0.486\nsamples = 12\nvalue = [7, 5, 0]", fillcolor="#e5813949"] ;
44 -> 45 ;
46 [label="X[10] <= 1.678\ngini = 0.219\nsamples = 8\nvalue = [7, 1, 0]", fillcolor="#e58139db"] ;
45 -> 46 ;
47 [label="gini = 0.0\nsamples = 7\nvalue = [7, 0, 0]", fillcolor="#e58139ff"] ;
46 -> 47 ;
48 [label="gini = 0.0\nsamples = 1\nvalue = [0, 1, 0]", fillcolor="#39e581ff"] ;
46 -> 48 ;
49 [label="gini = 0.0\nsamples = 4\nvalue = [0, 4, 0]", fillcolor="#39e581ff"] ;
45 -> 49 ;
50 [label="gini = 0.0\nsamples = 4\nvalue = [0, 0, 4]", fillcolor="#8139e5ff"] ;
44 -> 50 ;
51 [label="X[4] <= 1.262\ngini = 0.643\nsamples = 19\nvalue = [4, 8, 7]", fillcolor="#39e58115"] ;
39 -> 51 ;
52 [label="X[19] <= -1.235\ngini = 0.592\nsamples = 13\nvalue = [4, 2, 7]", fillcolor="#8139e555"] ;
51 -> 52 ;
53 [label="gini = 0.0\nsamples = 3\nvalue = [3, 0, 0]", fillcolor="#e58139ff"] ;
52 -> 53 ;
54 [label="X[14] <= 0.847\ngini = 0.46\nsamples = 10\nvalue = [1, 2, 7]", fillcolor="#8139e59f"] ;
52 -> 54 ;
55 [label="gini = 0.0\nsamples = 7\nvalue = [0, 0, 7]", fillcolor="#8139e5ff"] ;
54 -> 55 ;
56 [label="X[28] <= 2.188\ngini = 0.444\nsamples = 3\nvalue = [1, 2, 0]", fillcolor="#39e5817f"] ;
54 -> 56 ;
57 [label="gini = 0.0\nsamples = 1\nvalue = [1, 0, 0]", fillcolor="#e58139ff"] ;
56 -> 57 ;
58 [label="gini = 0.0\nsamples = 2\nvalue = [0, 2, 0]", fillcolor="#39e581ff"] ;
56 -> 58 ;
59 [label="gini = 0.0\nsamples = 6\nvalue = [0, 6, 0]", fillcolor="#39e581ff"] ;
51 -> 59 ;
60 [label="X[18] <= 0.355\ngini = 0.631\nsamples = 107\nvalue = [25, 52, 30]", fillcolor="#39e58149"] ;
38 -> 60 ;
61 [label="X[5] <= 1.577\ngini = 0.641\nsamples = 54\nvalue = [14, 15, 25]", fillcolor="#8139e541"] ;
60 -> 61 ;
62 [label="X[18] <= -1.476\ngini = 0.5\nsamples = 38\nvalue = [9, 4, 25]", fillcolor="#8139e58d"] ;
61 -> 62 ;
63 [label="X[1] <= 8.175\ngini = 0.105\nsamples = 18\nvalue = [0, 1, 17]", fillcolor="#8139e5f0"] ;
62 -> 63 ;
64 [label="gini = 0.0\nsamples = 17\nvalue = [0, 0, 17]", fillcolor="#8139e5ff"] ;
63 -> 64 ;
65 [label="gini = 0.0\nsamples = 1\nvalue = [0, 1, 0]", fillcolor="#39e581ff"] ;
63 -> 65 ;
66 [label="X[21] <= 0.074\ngini = 0.615\nsamples = 20\nvalue = [9, 3, 8]", fillcolor="#e5813915"] ;
62 -> 66 ;
67 [label="X[28] <= -2.061\ngini = 0.569\nsamples = 12\nvalue = [2, 3, 7]", fillcolor="#8139e571"] ;
66 -> 67 ;
68 [label="gini = 0.0\nsamples = 6\nvalue = [0, 0, 6]", fillcolor="#8139e5ff"] ;
67 -> 68 ;
69 [label="gini = 0.611\nsamples = 6\nvalue = [2, 3, 1]", fillcolor="#39e58140"] ;
67 -> 69 ;
70 [label="X[7] <= 1.663\ngini = 0.219\nsamples = 8\nvalue = [7, 0, 1]", fillcolor="#e58139db"] ;
66 -> 70 ;
71 [label="gini = 0.0\nsamples = 7\nvalue = [7, 0, 0]", fillcolor="#e58139ff"] ;
70 -> 71 ;
72 [label="gini = 0.0\nsamples = 1\nvalue = [0, 0, 1]", fillcolor="#8139e5ff"] ;
70 -> 72 ;
73 [label="X[22] <= 0.179\ngini = 0.43\nsamples = 16\nvalue = [5, 11, 0]", fillcolor="#39e5818b"] ;
61 -> 73 ;
74 [label="X[8] <= 3.915\ngini = 0.153\nsamples = 12\nvalue = [1, 11, 0]", fillcolor="#39e581e8"] ;
73 -> 74 ;
75 [label="gini = 0.0\nsamples = 11\nvalue = [0, 11, 0]", fillcolor="#39e581ff"] ;
74 -> 75 ;
76 [label="gini = 0.0\nsamples = 1\nvalue = [1, 0, 0]", fillcolor="#e58139ff"] ;
74 -> 76 ;
77 [label="gini = 0.0\nsamples = 4\nvalue = [4, 0, 0]", fillcolor="#e58139ff"] ;
73 -> 77 ;
78 [label="X[27] <= 2.301\ngini = 0.461\nsamples = 53\nvalue = [11, 37, 5]", fillcolor="#39e5819e"] ;
60 -> 78 ;
79 [label="X[13] <= 3.626\ngini = 0.34\nsamples = 45\nvalue = [4, 36, 5]", fillcolor="#39e581c6"] ;
78 -> 79 ;
80 [label="X[28] <= 2.065\ngini = 0.197\nsamples = 37\nvalue = [1, 33, 3]", fillcolor="#39e581e1"] ;
79 -> 80 ;
81 [label="X[9] <= -2.097\ngini = 0.156\nsamples = 36\nvalue = [1, 33, 2]", fillcolor="#39e581e8"] ;
80 -> 81 ;
82 [label="gini = 0.48\nsamples = 5\nvalue = [0, 3, 2]", fillcolor="#39e58155"] ;
81 -> 82 ;
83 [label="gini = 0.062\nsamples = 31\nvalue = [1, 30, 0]", fillcolor="#39e581f6"] ;
81 -> 83 ;
84 [label="gini = 0.0\nsamples = 1\nvalue = [0, 0, 1]", fillcolor="#8139e5ff"] ;
80 -> 84 ;
85 [label="X[28] <= -3.15\ngini = 0.656\nsamples = 8\nvalue = [3, 3, 2]", fillcolor="#e5813900"] ;
79 -> 85 ;
86 [label="X[26] <= 0.33\ngini = 0.48\nsamples = 5\nvalue = [0, 3, 2]", fillcolor="#39e58155"] ;
85 -> 86 ;
87 [label="gini = 0.0\nsamples = 2\nvalue = [0, 0, 2]", fillcolor="#8139e5ff"] ;
86 -> 87 ;
88 [label="gini = 0.0\nsamples = 3\nvalue = [0, 3, 0]", fillcolor="#39e581ff"] ;
86 -> 88 ;
89 [label="gini = 0.0\nsamples = 3\nvalue = [3, 0, 0]", fillcolor="#e58139ff"] ;
85 -> 89 ;
90 [label="X[8] <= 1.742\ngini = 0.219\nsamples = 8\nvalue = [7, 1, 0]", fillcolor="#e58139db"] ;
78 -> 90 ;
91 [label="gini = 0.0\nsamples = 7\nvalue = [7, 0, 0]", fillcolor="#e58139ff"] ;
90 -> 91 ;
92 [label="gini = 0.0\nsamples = 1\nvalue = [0, 1, 0]", fillcolor="#39e581ff"] ;
90 -> 92 ;
93 [label="X[26] <= -4.025\ngini = 0.46\nsamples = 98\nvalue = [15, 69, 14]", fillcolor="#39e581a6"] ;
1 -> 93 ;
94 [label="X[11] <= -1.113\ngini = 0.32\nsamples = 10\nvalue = [0, 2, 8]", fillcolor="#8139e5bf"] ;
93 -> 94 ;
95 [label="gini = 0.0\nsamples = 2\nvalue = [0, 2, 0]", fillcolor="#39e581ff"] ;
94 -> 95 ;
96 [label="gini = 0.0\nsamples = 8\nvalue = [0, 0, 8]", fillcolor="#8139e5ff"] ;
94 -> 96 ;
97 [label="X[4] <= -1.69\ngini = 0.387\nsamples = 88\nvalue = [15, 67, 6]", fillcolor="#39e581b6"] ;
93 -> 97 ;
98 [label="X[11] <= 0.573\ngini = 0.64\nsamples = 15\nvalue = [7, 4, 4]", fillcolor="#e5813946"] ;
97 -> 98 ;
99 [label="X[12] <= -0.369\ngini = 0.346\nsamples = 9\nvalue = [7, 0, 2]", fillcolor="#e58139b6"] ;
98 -> 99 ;
100 [label="gini = 0.0\nsamples = 7\nvalue = [7, 0, 0]", fillcolor="#e58139ff"] ;
99 -> 100 ;
101 [label="gini = 0.0\nsamples = 2\nvalue = [0, 0, 2]", fillcolor="#8139e5ff"] ;
99 -> 101 ;
102 [label="X[4] <= -4.996\ngini = 0.444\nsamples = 6\nvalue = [0, 4, 2]", fillcolor="#39e5817f"] ;
98 -> 102 ;
103 [label="gini = 0.0\nsamples = 2\nvalue = [0, 0, 2]", fillcolor="#8139e5ff"] ;
102 -> 103 ;
104 [label="gini = 0.0\nsamples = 4\nvalue = [0, 4, 0]", fillcolor="#39e581ff"] ;
102 -> 104 ;
105 [label="X[18] <= -4.761\ngini = 0.242\nsamples = 73\nvalue = [8, 63, 2]", fillcolor="#39e581d8"] ;
97 -> 105 ;
106 [label="gini = 0.0\nsamples = 2\nvalue = [2, 0, 0]", fillcolor="#e58139ff"] ;
105 -> 106 ;
107 [label="X[24] <= 1.155\ngini = 0.205\nsamples = 71\nvalue = [6, 63, 2]", fillcolor="#39e581e0"] ;
105 -> 107 ;
108 [label="X[7] <= 1.775\ngini = 0.093\nsamples = 62\nvalue = [2, 59, 1]", fillcolor="#39e581f2"] ;
107 -> 108 ;
109 [label="X[21] <= -2.359\ngini = 0.063\nsamples = 61\nvalue = [2, 59, 0]", fillcolor="#39e581f6"] ;
108 -> 109 ;
110 [label="gini = 0.0\nsamples = 1\nvalue = [1, 0, 0]", fillcolor="#e58139ff"] ;
109 -> 110 ;
111 [label="X[21] <= 1.665\ngini = 0.033\nsamples = 60\nvalue = [1, 59, 0]", fillcolor="#39e581fb"] ;
109 -> 111 ;
112 [label="gini = 0.0\nsamples = 59\nvalue = [0, 59, 0]", fillcolor="#39e581ff"] ;
111 -> 112 ;
113 [label="gini = 0.0\nsamples = 1\nvalue = [1, 0, 0]", fillcolor="#e58139ff"] ;
111 -> 113 ;
114 [label="gini = 0.0\nsamples = 1\nvalue = [0, 0, 1]", fillcolor="#8139e5ff"] ;
108 -> 114 ;
115 [label="X[19] <= -0.659\ngini = 0.593\nsamples = 9\nvalue = [4, 4, 1]", fillcolor="#e5813900"] ;
107 -> 115 ;
116 [label="X[17] <= 2.234\ngini = 0.32\nsamples = 5\nvalue = [0, 4, 1]", fillcolor="#39e581bf"] ;
115 -> 116 ;
117 [label="gini = 0.0\nsamples = 4\nvalue = [0, 4, 0]", fillcolor="#39e581ff"] ;
116 -> 117 ;
118 [label="gini = 0.0\nsamples = 1\nvalue = [0, 0, 1]", fillcolor="#8139e5ff"] ;
116 -> 118 ;
119 [label="gini = 0.0\nsamples = 4\nvalue = [4, 0, 0]", fillcolor="#e58139ff"] ;
115 -> 119 ;
120 [label="X[8] <= -1.824\ngini = 0.541\nsamples = 135\nvalue = [26, 25, 84]", fillcolor="#8139e588"] ;
0 -> 120 [labeldistance=2.5, labelangle=-45, headlabel="False"] ;
121 [label="X[14] <= -1.269\ngini = 0.579\nsamples = 28\nvalue = [16, 5, 7]", fillcolor="#e581396d"] ;
120 -> 121 ;
122 [label="X[19] <= 3.179\ngini = 0.531\nsamples = 8\nvalue = [1, 2, 5]", fillcolor="#8139e580"] ;
121 -> 122 ;
123 [label="gini = 0.0\nsamples = 5\nvalue = [0, 0, 5]", fillcolor="#8139e5ff"] ;
122 -> 123 ;
124 [label="X[16] <= 0.144\ngini = 0.444\nsamples = 3\nvalue = [1, 2, 0]", fillcolor="#39e5817f"] ;
122 -> 124 ;
125 [label="gini = 0.0\nsamples = 2\nvalue = [0, 2, 0]", fillcolor="#39e581ff"] ;
124 -> 125 ;
126 [label="gini = 0.0\nsamples = 1\nvalue = [1, 0, 0]", fillcolor="#e58139ff"] ;
124 -> 126 ;
127 [label="X[25] <= 5.106\ngini = 0.405\nsamples = 20\nvalue = [15, 3, 2]", fillcolor="#e58139b4"] ;
121 -> 127 ;
128 [label="X[0] <= 0.984\ngini = 0.278\nsamples = 18\nvalue = [15, 3, 0]", fillcolor="#e58139cc"] ;
127 -> 128 ;
129 [label="X[5] <= 3.259\ngini = 0.117\nsamples = 16\nvalue = [15, 1, 0]", fillcolor="#e58139ee"] ;
128 -> 129 ;
130 [label="gini = 0.0\nsamples = 15\nvalue = [15, 0, 0]", fillcolor="#e58139ff"] ;
129 -> 130 ;
131 [label="gini = 0.0\nsamples = 1\nvalue = [0, 1, 0]", fillcolor="#39e581ff"] ;
129 -> 131 ;
132 [label="gini = 0.0\nsamples = 2\nvalue = [0, 2, 0]", fillcolor="#39e581ff"] ;
128 -> 132 ;
133 [label="gini = 0.0\nsamples = 2\nvalue = [0, 0, 2]", fillcolor="#8139e5ff"] ;
127 -> 133 ;
134 [label="X[27] <= -4.92\ngini = 0.438\nsamples = 107\nvalue = [10, 20, 77]", fillcolor="#8139e5a7"] ;
120 -> 134 ;
135 [label="X[17] <= 0.629\ngini = 0.554\nsamples = 28\nvalue = [2, 15, 11]", fillcolor="#39e5813c"] ;
134 -> 135 ;
136 [label="gini = 0.0\nsamples = 9\nvalue = [0, 0, 9]", fillcolor="#8139e5ff"] ;
135 -> 136 ;
137 [label="X[28] <= -8.793\ngini = 0.355\nsamples = 19\nvalue = [2, 15, 2]", fillcolor="#39e581c3"] ;
135 -> 137 ;
138 [label="gini = 0.0\nsamples = 2\nvalue = [2, 0, 0]", fillcolor="#e58139ff"] ;
137 -> 138 ;
139 [label="X[18] <= -1.998\ngini = 0.208\nsamples = 17\nvalue = [0, 15, 2]", fillcolor="#39e581dd"] ;
137 -> 139 ;
140 [label="gini = 0.0\nsamples = 1\nvalue = [0, 0, 1]", fillcolor="#8139e5ff"] ;
139 -> 140 ;
141 [label="X[19] <= 5.594\ngini = 0.117\nsamples = 16\nvalue = [0, 15, 1]", fillcolor="#39e581ee"] ;
139 -> 141 ;
142 [label="gini = 0.0\nsamples = 15\nvalue = [0, 15, 0]", fillcolor="#39e581ff"] ;
141 -> 142 ;
143 [label="gini = 0.0\nsamples = 1\nvalue = [0, 0, 1]", fillcolor="#8139e5ff"] ;
141 -> 143 ;
144 [label="X[0] <= -3.995\ngini = 0.288\nsamples = 79\nvalue = [8, 5, 66]", fillcolor="#8139e5d0"] ;
134 -> 144 ;
145 [label="X[9] <= 1.04\ngini = 0.408\nsamples = 7\nvalue = [5, 0, 2]", fillcolor="#e5813999"] ;
144 -> 145 ;
146 [label="gini = 0.0\nsamples = 2\nvalue = [0, 0, 2]", fillcolor="#8139e5ff"] ;
145 -> 146 ;
147 [label="gini = 0.0\nsamples = 5\nvalue = [5, 0, 0]", fillcolor="#e58139ff"] ;
145 -> 147 ;
148 [label="X[25] <= 8.06\ngini = 0.203\nsamples = 72\nvalue = [3, 5, 64]", fillcolor="#8139e5e1"] ;
144 -> 148 ;
149 [label="X[15] <= 3.924\ngini = 0.159\nsamples = 70\nvalue = [1, 5, 64]", fillcolor="#8139e5e7"] ;
148 -> 149 ;
150 [label="X[26] <= -4.978\ngini = 0.089\nsamples = 65\nvalue = [1, 2, 62]", fillcolor="#8139e5f3"] ;
149 -> 150 ;
151 [label="gini = 0.0\nsamples = 1\nvalue = [0, 1, 0]", fillcolor="#39e581ff"] ;
150 -> 151 ;
152 [label="X[1] <= 10.93\ngini = 0.061\nsamples = 64\nvalue = [1, 1, 62]", fillcolor="#8139e5f7"] ;
150 -> 152 ;
153 [label="X[0] <= 4.837\ngini = 0.032\nsamples = 62\nvalue = [1, 0, 61]", fillcolor="#8139e5fb"] ;
152 -> 153 ;
154 [label="gini = 0.0\nsamples = 60\nvalue = [0, 0, 60]", fillcolor="#8139e5ff"] ;
153 -> 154 ;
155 [label="gini = 0.5\nsamples = 2\nvalue = [1, 0, 1]", fillcolor="#e5813900"] ;
153 -> 155 ;
156 [label="X[0] <= -1.197\ngini = 0.5\nsamples = 2\nvalue = [0, 1, 1]", fillcolor="#39e58100"] ;
152 -> 156 ;
157 [label="gini = 0.0\nsamples = 1\nvalue = [0, 0, 1]", fillcolor="#8139e5ff"] ;
156 -> 157 ;
158 [label="gini = 0.0\nsamples = 1\nvalue = [0, 1, 0]", fillcolor="#39e581ff"] ;
156 -> 158 ;
159 [label="X[8] <= -0.071\ngini = 0.48\nsamples = 5\nvalue = [0, 3, 2]", fillcolor="#39e58155"] ;
149 -> 159 ;
160 [label="gini = 0.0\nsamples = 3\nvalue = [0, 3, 0]", fillcolor="#39e581ff"] ;
159 -> 160 ;
161 [label="gini = 0.0\nsamples = 2\nvalue = [0, 0, 2]", fillcolor="#8139e5ff"] ;
159 -> 161 ;
162 [label="gini = 0.0\nsamples = 2\nvalue = [2, 0, 0]", fillcolor="#e58139ff"] ;
148 -> 162 ;
}