digraph Tree {
node [shape=box, style="filled", color="black"] ;
0 [label="X[31] <= 0.5\nentropy = 0.649\nsamples = 45222\nvalue = [37714, 7508]", fillcolor="#e58139cc"] ;
1 [label="X[3] <= 7280.0\nentropy = 0.269\nsamples = 24167\nvalue = [23058, 1109]", fillcolor="#e58139f3"] ;
0 -> 1 [labeldistance=2.5, labelangle=45, headlabel="True"] ;
2 [label="X[2] <= 12.5\nentropy = 0.217\nsamples = 23722\nvalue = [22899, 823]", fillcolor="#e58139f6"] ;
1 -> 2 ;
3 [label="X[0] <= 28.5\nentropy = 0.127\nsamples = 18847\nvalue = [18517, 330]", fillcolor="#e58139fa"] ;
2 -> 3 ;
4 [label="X[0] <= 21.5\nentropy = 0.031\nsamples = 8160\nvalue = [8134, 26]", fillcolor="#e58139fe"] ;
3 -> 4 ;
5 [label="X[18] <= 0.5\nentropy = 0.004\nsamples = 3741\nvalue = [3740, 1]", fillcolor="#e58139ff"] ;
4 -> 5 ;
6 [label="entropy = 0.0\nsamples = 3711\nvalue = [3711, 0]", fillcolor="#e58139ff"] ;
5 -> 6 ;
7 [label="X[5] <= 56.0\nentropy = 0.211\nsamples = 30\nvalue = [29, 1]", fillcolor="#e58139f6"] ;
5 -> 7 ;
8 [label="entropy = 0.0\nsamples = 27\nvalue = [27, 0]", fillcolor="#e58139ff"] ;
7 -> 8 ;
9 [label="X[1] <= 303151.5\nentropy = 0.918\nsamples = 3\nvalue = [2, 1]", fillcolor="#e581397f"] ;
7 -> 9 ;
10 [label="entropy = 0.0\nsamples = 2\nvalue = [2, 0]", fillcolor="#e58139ff"] ;
9 -> 10 ;
11 [label="entropy = 0.0\nsamples = 1\nvalue = [0, 1]", fillcolor="#399de5ff"] ;
9 -> 11 ;
12 [label="X[8] <= 0.5\nentropy = 0.05\nsamples = 4419\nvalue = [4394, 25]", fillcolor="#e58139fe"] ;
4 -> 12 ;
13 [label="X[1] <= 230576.0\nentropy = 0.143\nsamples = 541\nvalue = [530, 11]", fillcolor="#e58139fa"] ;
12 -> 13 ;
14 [label="X[1] <= 229114.0\nentropy = 0.196\nsamples = 363\nvalue = [352, 11]", fillcolor="#e58139f7"] ;
13 -> 14 ;
15 [label="X[62] <= 0.5\nentropy = 0.182\nsamples = 362\nvalue = [352, 10]", fillcolor="#e58139f8"] ;
14 -> 15 ;
16 [label="entropy = 0.0\nsamples = 140\nvalue = [140, 0]", fillcolor="#e58139ff"] ;
15 -> 16 ;
17 [label="entropy = 0.265\nsamples = 222\nvalue = [212, 10]", fillcolor="#e58139f3"] ;
15 -> 17 ;
18 [label="entropy = 0.0\nsamples = 1\nvalue = [0, 1]", fillcolor="#399de5ff"] ;
14 -> 18 ;
19 [label="entropy = 0.0\nsamples = 178\nvalue = [178, 0]", fillcolor="#e58139ff"] ;
13 -> 19 ;
20 [label="X[30] <= 0.5\nentropy = 0.034\nsamples = 3878\nvalue = [3864, 14]", fillcolor="#e58139fe"] ;
12 -> 20 ;
21 [label="X[4] <= 2501.5\nentropy = 0.03\nsamples = 3873\nvalue = [3861, 12]", fillcolor="#e58139fe"] ;
20 -> 21 ;
22 [label="X[5] <= 44.5\nentropy = 0.028\nsamples = 3872\nvalue = [3861, 11]", fillcolor="#e58139fe"] ;
21 -> 22 ;
23 [label="entropy = 0.014\nsamples = 3242\nvalue = [3238, 4]", fillcolor="#e58139ff"] ;
22 -> 23 ;
24 [label="entropy = 0.088\nsamples = 630\nvalue = [623, 7]", fillcolor="#e58139fc"] ;
22 -> 24 ;
25 [label="entropy = 0.0\nsamples = 1\nvalue = [0, 1]", fillcolor="#399de5ff"] ;
21 -> 25 ;
26 [label="X[38] <= 0.5\nentropy = 0.971\nsamples = 5\nvalue = [3, 2]", fillcolor="#e5813955"] ;
20 -> 26 ;
27 [label="X[0] <= 24.0\nentropy = 0.811\nsamples = 4\nvalue = [3, 1]", fillcolor="#e58139aa"] ;
26 -> 27 ;
28 [label="entropy = 0.0\nsamples = 1\nvalue = [0, 1]", fillcolor="#399de5ff"] ;
27 -> 28 ;
29 [label="entropy = 0.0\nsamples = 3\nvalue = [3, 0]", fillcolor="#e58139ff"] ;
27 -> 29 ;
30 [label="entropy = 0.0\nsamples = 1\nvalue = [0, 1]", fillcolor="#399de5ff"] ;
26 -> 30 ;
31 [label="X[5] <= 40.5\nentropy = 0.187\nsamples = 10687\nvalue = [10383, 304]", fillcolor="#e58139f8"] ;
3 -> 31 ;
32 [label="X[45] <= 0.5\nentropy = 0.128\nsamples = 8275\nvalue = [8129, 146]", fillcolor="#e58139fa"] ;
31 -> 32 ;
33 [label="X[4] <= 2218.5\nentropy = 0.113\nsamples = 7854\nvalue = [7735, 119]", fillcolor="#e58139fb"] ;
32 -> 33 ;
34 [label="X[39] <= 0.5\nentropy = 0.107\nsamples = 7820\nvalue = [7710, 110]", fillcolor="#e58139fb"] ;
33 -> 34 ;
35 [label="X[58] <= 0.5\nentropy = 0.091\nsamples = 7208\nvalue = [7125, 83]", fillcolor="#e58139fc"] ;
34 -> 35 ;
36 [label="entropy = 0.104\nsamples = 5838\nvalue = [5758, 80]", fillcolor="#e58139fb"] ;
35 -> 36 ;
37 [label="entropy = 0.023\nsamples = 1370\nvalue = [1367, 3]", fillcolor="#e58139fe"] ;
35 -> 37 ;
38 [label="X[0] <= 32.5\nentropy = 0.261\nsamples = 612\nvalue = [585, 27]", fillcolor="#e58139f3"] ;
34 -> 38 ;
39 [label="entropy = 0.0\nsamples = 93\nvalue = [93, 0]", fillcolor="#e58139ff"] ;
38 -> 39 ;
40 [label="entropy = 0.295\nsamples = 519\nvalue = [492, 27]", fillcolor="#e58139f1"] ;
38 -> 40 ;
41 [label="X[1] <= 194645.5\nentropy = 0.834\nsamples = 34\nvalue = [25, 9]", fillcolor="#e58139a3"] ;
33 -> 41 ;
42 [label="X[4] <= 2270.0\nentropy = 0.966\nsamples = 23\nvalue = [14, 9]", fillcolor="#e581395b"] ;
41 -> 42 ;
43 [label="entropy = 0.0\nsamples = 4\nvalue = [0, 4]", fillcolor="#399de5ff"] ;
42 -> 43 ;
44 [label="entropy = 0.831\nsamples = 19\nvalue = [14, 5]", fillcolor="#e58139a4"] ;
42 -> 44 ;
45 [label="entropy = 0.0\nsamples = 11\nvalue = [11, 0]", fillcolor="#e58139ff"] ;
41 -> 45 ;
46 [label="X[61] <= 0.5\nentropy = 0.344\nsamples = 421\nvalue = [394, 27]", fillcolor="#e58139ee"] ;
32 -> 46 ;
47 [label="X[3] <= 4718.5\nentropy = 0.576\nsamples = 117\nvalue = [101, 16]", fillcolor="#e58139d7"] ;
46 -> 47 ;
48 [label="X[14] <= 0.5\nentropy = 0.534\nsamples = 115\nvalue = [101, 14]", fillcolor="#e58139dc"] ;
47 -> 48 ;
49 [label="entropy = 0.512\nsamples = 114\nvalue = [101, 13]", fillcolor="#e58139de"] ;
48 -> 49 ;
50 [label="entropy = 0.0\nsamples = 1\nvalue = [0, 1]", fillcolor="#399de5ff"] ;
48 -> 50 ;
51 [label="entropy = 0.0\nsamples = 2\nvalue = [0, 2]", fillcolor="#399de5ff"] ;
47 -> 51 ;
52 [label="X[6] <= 0.5\nentropy = 0.225\nsamples = 304\nvalue = [293, 11]", fillcolor="#e58139f5"] ;
46 -> 52 ;
53 [label="X[8] <= 0.5\nentropy = 0.184\nsamples = 286\nvalue = [278, 8]", fillcolor="#e58139f8"] ;
52 -> 53 ;
54 [label="entropy = 0.0\nsamples = 79\nvalue = [79, 0]", fillcolor="#e58139ff"] ;
53 -> 54 ;
55 [label="entropy = 0.236\nsamples = 207\nvalue = [199, 8]", fillcolor="#e58139f5"] ;
53 -> 55 ;
56 [label="X[57] <= 0.5\nentropy = 0.65\nsamples = 18\nvalue = [15, 3]", fillcolor="#e58139cc"] ;
52 -> 56 ;
57 [label="entropy = 0.523\nsamples = 17\nvalue = [15, 2]", fillcolor="#e58139dd"] ;
56 -> 57 ;
58 [label="entropy = 0.0\nsamples = 1\nvalue = [0, 1]", fillcolor="#399de5ff"] ;
56 -> 58 ;
59 [label="X[4] <= 2244.5\nentropy = 0.349\nsamples = 2412\nvalue = [2254, 158]", fillcolor="#e58139ed"] ;
31 -> 59 ;
60 [label="X[62] <= 0.5\nentropy = 0.329\nsamples = 2382\nvalue = [2238, 144]", fillcolor="#e58139ef"] ;
59 -> 60 ;
61 [label="X[1] <= 103263.0\nentropy = 0.223\nsamples = 948\nvalue = [914, 34]", fillcolor="#e58139f6"] ;
60 -> 61 ;
62 [label="X[74] <= 0.5\nentropy = 0.048\nsamples = 189\nvalue = [188, 1]", fillcolor="#e58139fe"] ;
61 -> 62 ;
63 [label="entropy = 0.0\nsamples = 188\nvalue = [188, 0]", fillcolor="#e58139ff"] ;
62 -> 63 ;
64 [label="entropy = 0.0\nsamples = 1\nvalue = [0, 1]", fillcolor="#399de5ff"] ;
62 -> 64 ;
65 [label="X[46] <= 0.5\nentropy = 0.258\nsamples = 759\nvalue = [726, 33]", fillcolor="#e58139f3"] ;
61 -> 65 ;
66 [label="entropy = 0.247\nsamples = 756\nvalue = [725, 31]", fillcolor="#e58139f4"] ;
65 -> 66 ;
67 [label="entropy = 0.918\nsamples = 3\nvalue = [1, 2]", fillcolor="#399de57f"] ;
65 -> 67 ;
68 [label="X[0] <= 39.5\nentropy = 0.39\nsamples = 1434\nvalue = [1324, 110]", fillcolor="#e58139ea"] ;
60 -> 68 ;
69 [label="X[1] <= 34236.0\nentropy = 0.293\nsamples = 833\nvalue = [790, 43]", fillcolor="#e58139f1"] ;
68 -> 69 ;
70 [label="entropy = 0.712\nsamples = 41\nvalue = [33, 8]", fillcolor="#e58139c1"] ;
69 -> 70 ;
71 [label="entropy = 0.261\nsamples = 792\nvalue = [757, 35]", fillcolor="#e58139f3"] ;
69 -> 71 ;
72 [label="X[1] <= 328275.0\nentropy = 0.504\nsamples = 601\nvalue = [534, 67]", fillcolor="#e58139df"] ;
68 -> 72 ;
73 [label="entropy = 0.455\nsamples = 554\nvalue = [501, 53]", fillcolor="#e58139e4"] ;
72 -> 73 ;
74 [label="entropy = 0.879\nsamples = 47\nvalue = [33, 14]", fillcolor="#e5813993"] ;
72 -> 74 ;
75 [label="X[0] <= 36.5\nentropy = 0.997\nsamples = 30\nvalue = [16, 14]", fillcolor="#e5813920"] ;
59 -> 75 ;
76 [label="X[21] <= 0.5\nentropy = 0.544\nsamples = 8\nvalue = [7, 1]", fillcolor="#e58139db"] ;
75 -> 76 ;
77 [label="entropy = 0.0\nsamples = 7\nvalue = [7, 0]", fillcolor="#e58139ff"] ;
76 -> 77 ;
78 [label="entropy = 0.0\nsamples = 1\nvalue = [0, 1]", fillcolor="#399de5ff"] ;
76 -> 78 ;
79 [label="X[2] <= 5.0\nentropy = 0.976\nsamples = 22\nvalue = [9, 13]", fillcolor="#399de54e"] ;
75 -> 79 ;
80 [label="entropy = 0.0\nsamples = 2\nvalue = [2, 0]", fillcolor="#e58139ff"] ;
79 -> 80 ;
81 [label="X[4] <= 2501.5\nentropy = 0.934\nsamples = 20\nvalue = [7, 13]", fillcolor="#399de576"] ;
79 -> 81 ;
82 [label="entropy = 1.0\nsamples = 14\nvalue = [7, 7]", fillcolor="#e5813900"] ;
81 -> 82 ;
83 [label="entropy = 0.0\nsamples = 6\nvalue = [0, 6]", fillcolor="#399de5ff"] ;
81 -> 83 ;
84 [label="X[0] <= 27.5\nentropy = 0.473\nsamples = 4875\nvalue = [4382, 493]", fillcolor="#e58139e2"] ;
2 -> 84 ;
85 [label="X[4] <= 2218.0\nentropy = 0.098\nsamples = 1419\nvalue = [1401, 18]", fillcolor="#e58139fc"] ;
84 -> 85 ;
86 [label="X[5] <= 39.5\nentropy = 0.085\nsamples = 1411\nvalue = [1396, 15]", fillcolor="#e58139fc"] ;
85 -> 86 ;
87 [label="entropy = 0.0\nsamples = 417\nvalue = [417, 0]", fillcolor="#e58139ff"] ;
86 -> 87 ;
88 [label="X[0] <= 23.5\nentropy = 0.113\nsamples = 994\nvalue = [979, 15]", fillcolor="#e58139fb"] ;
86 -> 88 ;
89 [label="entropy = 0.0\nsamples = 221\nvalue = [221, 0]", fillcolor="#e58139ff"] ;
88 -> 89 ;
90 [label="X[5] <= 53.5\nentropy = 0.138\nsamples = 773\nvalue = [758, 15]", fillcolor="#e58139fa"] ;
88 -> 90 ;
91 [label="X[30] <= 0.5\nentropy = 0.109\nsamples = 694\nvalue = [684, 10]", fillcolor="#e58139fb"] ;
90 -> 91 ;
92 [label="entropy = 0.1\nsamples = 692\nvalue = [683, 9]", fillcolor="#e58139fc"] ;
91 -> 92 ;
93 [label="entropy = 1.0\nsamples = 2\nvalue = [1, 1]", fillcolor="#e5813900"] ;
91 -> 93 ;
94 [label="X[0] <= 24.5\nentropy = 0.34\nsamples = 79\nvalue = [74, 5]", fillcolor="#e58139ee"] ;
90 -> 94 ;
95 [label="entropy = 0.0\nsamples = 21\nvalue = [21, 0]", fillcolor="#e58139ff"] ;
94 -> 95 ;
96 [label="entropy = 0.424\nsamples = 58\nvalue = [53, 5]", fillcolor="#e58139e7"] ;
94 -> 96 ;
97 [label="X[4] <= 2298.5\nentropy = 0.954\nsamples = 8\nvalue = [5, 3]", fillcolor="#e5813966"] ;
85 -> 97 ;
98 [label="X[47] <= 0.5\nentropy = 0.811\nsamples = 4\nvalue = [1, 3]", fillcolor="#399de5aa"] ;
97 -> 98 ;
99 [label="entropy = 0.0\nsamples = 3\nvalue = [0, 3]", fillcolor="#399de5ff"] ;
98 -> 99 ;
100 [label="entropy = 0.0\nsamples = 1\nvalue = [1, 0]", fillcolor="#e58139ff"] ;
98 -> 100 ;
101 [label="entropy = 0.0\nsamples = 4\nvalue = [4, 0]", fillcolor="#e58139ff"] ;
97 -> 101 ;
102 [label="X[5] <= 43.5\nentropy = 0.578\nsamples = 3456\nvalue = [2981, 475]", fillcolor="#e58139d6"] ;
84 -> 102 ;
103 [label="X[2] <= 14.5\nentropy = 0.42\nsamples = 2172\nvalue = [1987, 185]", fillcolor="#e58139e7"] ;
102 -> 103 ;
104 [label="X[0] <= 42.5\nentropy = 0.377\nsamples = 2016\nvalue = [1869, 147]", fillcolor="#e58139eb"] ;
103 -> 104 ;
105 [label="X[36] <= 0.5\nentropy = 0.272\nsamples = 1201\nvalue = [1145, 56]", fillcolor="#e58139f3"] ;
104 -> 105 ;
106 [label="X[0] <= 33.5\nentropy = 0.299\nsamples = 1039\nvalue = [984, 55]", fillcolor="#e58139f1"] ;
105 -> 106 ;
107 [label="entropy = 0.203\nsamples = 473\nvalue = [458, 15]", fillcolor="#e58139f7"] ;
106 -> 107 ;
108 [label="entropy = 0.368\nsamples = 566\nvalue = [526, 40]", fillcolor="#e58139ec"] ;
106 -> 108 ;
109 [label="X[35] <= 0.5\nentropy = 0.054\nsamples = 162\nvalue = [161, 1]", fillcolor="#e58139fd"] ;
105 -> 109 ;
110 [label="entropy = 0.0\nsamples = 160\nvalue = [160, 0]", fillcolor="#e58139ff"] ;
109 -> 110 ;
111 [label="entropy = 1.0\nsamples = 2\nvalue = [1, 1]", fillcolor="#e5813900"] ;
109 -> 111 ;
112 [label="X[4] <= 2244.5\nentropy = 0.505\nsamples = 815\nvalue = [724, 91]", fillcolor="#e58139df"] ;
104 -> 112 ;
113 [label="X[5] <= 20.5\nentropy = 0.481\nsamples = 799\nvalue = [716, 83]", fillcolor="#e58139e1"] ;
112 -> 113 ;
114 [label="entropy = 0.0\nsamples = 78\nvalue = [78, 0]", fillcolor="#e58139ff"] ;
113 -> 114 ;
115 [label="entropy = 0.515\nsamples = 721\nvalue = [638, 83]", fillcolor="#e58139de"] ;
113 -> 115 ;
116 [label="X[4] <= 2914.0\nentropy = 1.0\nsamples = 16\nvalue = [8, 8]", fillcolor="#e5813900"] ;
112 -> 116 ;
117 [label="entropy = 0.985\nsamples = 14\nvalue = [6, 8]", fillcolor="#399de540"] ;
116 -> 117 ;
118 [label="entropy = 0.0\nsamples = 2\nvalue = [2, 0]", fillcolor="#e58139ff"] ;
116 -> 118 ;
119 [label="X[0] <= 31.5\nentropy = 0.801\nsamples = 156\nvalue = [118, 38]", fillcolor="#e58139ad"] ;
103 -> 119 ;
120 [label="entropy = 0.0\nsamples = 19\nvalue = [19, 0]", fillcolor="#e58139ff"] ;
119 -> 120 ;
121 [label="X[7] <= 0.5\nentropy = 0.852\nsamples = 137\nvalue = [99, 38]", fillcolor="#e581399d"] ;
119 -> 121 ;
122 [label="X[6] <= 0.5\nentropy = 0.904\nsamples = 119\nvalue = [81, 38]", fillcolor="#e5813987"] ;
121 -> 122 ;
123 [label="entropy = 0.876\nsamples = 115\nvalue = [81, 34]", fillcolor="#e5813994"] ;
122 -> 123 ;
124 [label="entropy = 0.0\nsamples = 4\nvalue = [0, 4]", fillcolor="#399de5ff"] ;
122 -> 124 ;
125 [label="entropy = 0.0\nsamples = 18\nvalue = [18, 0]", fillcolor="#e58139ff"] ;
121 -> 125 ;
126 [label="X[2] <= 14.5\nentropy = 0.771\nsamples = 1284\nvalue = [994, 290]", fillcolor="#e58139b5"] ;
102 -> 126 ;
127 [label="X[39] <= 0.5\nentropy = 0.727\nsamples = 1125\nvalue = [897, 228]", fillcolor="#e58139be"] ;
126 -> 127 ;
128 [label="X[62] <= 0.5\nentropy = 0.643\nsamples = 800\nvalue = [669, 131]", fillcolor="#e58139cd"] ;
127 -> 128 ;
129 [label="X[1] <= 154744.0\nentropy = 0.489\nsamples = 366\nvalue = [327, 39]", fillcolor="#e58139e1"] ;
128 -> 129 ;
130 [label="entropy = 0.28\nsamples = 144\nvalue = [137, 7]", fillcolor="#e58139f2"] ;
129 -> 130 ;
131 [label="entropy = 0.595\nsamples = 222\nvalue = [190, 32]", fillcolor="#e58139d4"] ;
129 -> 131 ;
132 [label="X[49] <= 0.5\nentropy = 0.745\nsamples = 434\nvalue = [342, 92]", fillcolor="#e58139ba"] ;
128 -> 132 ;
133 [label="entropy = 0.757\nsamples = 422\nvalue = [330, 92]", fillcolor="#e58139b8"] ;
132 -> 133 ;
134 [label="entropy = 0.0\nsamples = 12\nvalue = [12, 0]", fillcolor="#e58139ff"] ;
132 -> 134 ;
135 [label="X[0] <= 40.5\nentropy = 0.879\nsamples = 325\nvalue = [228, 97]", fillcolor="#e5813993"] ;
127 -> 135 ;
136 [label="X[5] <= 77.5\nentropy = 0.757\nsamples = 174\nvalue = [136, 38]", fillcolor="#e58139b8"] ;
135 -> 136 ;
137 [label="entropy = 0.74\nsamples = 172\nvalue = [136, 36]", fillcolor="#e58139bb"] ;
136 -> 137 ;
138 [label="entropy = 0.0\nsamples = 2\nvalue = [0, 2]", fillcolor="#399de5ff"] ;
136 -> 138 ;
139 [label="X[35] <= 0.5\nentropy = 0.965\nsamples = 151\nvalue = [92, 59]", fillcolor="#e581395b"] ;
135 -> 139 ;
140 [label="entropy = 0.975\nsamples = 145\nvalue = [86, 59]", fillcolor="#e5813950"] ;
139 -> 140 ;
141 [label="entropy = 0.0\nsamples = 6\nvalue = [6, 0]", fillcolor="#e58139ff"] ;
139 -> 141 ;
142 [label="X[0] <= 32.5\nentropy = 0.965\nsamples = 159\nvalue = [97, 62]", fillcolor="#e581395c"] ;
126 -> 142 ;
143 [label="X[101] <= 0.5\nentropy = 0.629\nsamples = 38\nvalue = [32, 6]", fillcolor="#e58139cf"] ;
142 -> 143 ;
144 [label="X[1] <= 321191.5\nentropy = 0.971\nsamples = 5\nvalue = [2, 3]", fillcolor="#399de555"] ;
143 -> 144 ;
145 [label="entropy = 0.918\nsamples = 3\nvalue = [2, 1]", fillcolor="#e581397f"] ;
144 -> 145 ;
146 [label="entropy = 0.0\nsamples = 2\nvalue = [0, 2]", fillcolor="#399de5ff"] ;
144 -> 146 ;
147 [label="X[33] <= 0.5\nentropy = 0.439\nsamples = 33\nvalue = [30, 3]", fillcolor="#e58139e6"] ;
143 -> 147 ;
148 [label="entropy = 0.971\nsamples = 5\nvalue = [3, 2]", fillcolor="#e5813955"] ;
147 -> 148 ;
149 [label="entropy = 0.222\nsamples = 28\nvalue = [27, 1]", fillcolor="#e58139f6"] ;
147 -> 149 ;
150 [label="X[6] <= 0.5\nentropy = 0.996\nsamples = 121\nvalue = [65, 56]", fillcolor="#e5813923"] ;
142 -> 150 ;
151 [label="X[1] <= 99519.0\nentropy = 0.983\nsamples = 111\nvalue = [64, 47]", fillcolor="#e5813944"] ;
150 -> 151 ;
152 [label="entropy = 0.706\nsamples = 26\nvalue = [21, 5]", fillcolor="#e58139c2"] ;
151 -> 152 ;
153 [label="entropy = 1.0\nsamples = 85\nvalue = [43, 42]", fillcolor="#e5813906"] ;
151 -> 153 ;
154 [label="X[5] <= 84.5\nentropy = 0.469\nsamples = 10\nvalue = [1, 9]", fillcolor="#399de5e3"] ;
150 -> 154 ;
155 [label="entropy = 0.0\nsamples = 9\nvalue = [0, 9]", fillcolor="#399de5ff"] ;
154 -> 155 ;
156 [label="entropy = 0.0\nsamples = 1\nvalue = [1, 0]", fillcolor="#e58139ff"] ;
154 -> 156 ;
157 [label="X[5] <= 58.5\nentropy = 0.94\nsamples = 445\nvalue = [159, 286]", fillcolor="#399de571"] ;
1 -> 157 ;
158 [label="X[0] <= 20.0\nentropy = 0.908\nsamples = 374\nvalue = [121, 253]", fillcolor="#399de585"] ;
157 -> 158 ;
159 [label="entropy = 0.0\nsamples = 4\nvalue = [4, 0]", fillcolor="#e58139ff"] ;
158 -> 159 ;
160 [label="X[3] <= 8296.0\nentropy = 0.9\nsamples = 370\nvalue = [117, 253]", fillcolor="#399de589"] ;
158 -> 160 ;
161 [label="X[8] <= 0.5\nentropy = 0.971\nsamples = 25\nvalue = [15, 10]", fillcolor="#e5813955"] ;
160 -> 161 ;
162 [label="X[0] <= 44.0\nentropy = 0.845\nsamples = 11\nvalue = [3, 8]", fillcolor="#399de59f"] ;
161 -> 162 ;
163 [label="entropy = 0.0\nsamples = 5\nvalue = [0, 5]", fillcolor="#399de5ff"] ;
162 -> 163 ;
164 [label="X[1] <= 181317.5\nentropy = 1.0\nsamples = 6\nvalue = [3, 3]", fillcolor="#e5813900"] ;
162 -> 164 ;
165 [label="X[1] <= 94728.0\nentropy = 0.811\nsamples = 4\nvalue = [3, 1]", fillcolor="#e58139aa"] ;
164 -> 165 ;
166 [label="entropy = 0.0\nsamples = 1\nvalue = [0, 1]", fillcolor="#399de5ff"] ;
165 -> 166 ;
167 [label="entropy = 0.0\nsamples = 3\nvalue = [3, 0]", fillcolor="#e58139ff"] ;
165 -> 167 ;
168 [label="entropy = 0.0\nsamples = 2\nvalue = [0, 2]", fillcolor="#399de5ff"] ;
164 -> 168 ;
169 [label="X[1] <= 228781.5\nentropy = 0.592\nsamples = 14\nvalue = [12, 2]", fillcolor="#e58139d4"] ;
161 -> 169 ;
170 [label="entropy = 0.0\nsamples = 10\nvalue = [10, 0]", fillcolor="#e58139ff"] ;
169 -> 170 ;
171 [label="X[22] <= 0.5\nentropy = 1.0\nsamples = 4\nvalue = [2, 2]", fillcolor="#e5813900"] ;
169 -> 171 ;
172 [label="entropy = 0.0\nsamples = 2\nvalue = [2, 0]", fillcolor="#e58139ff"] ;
171 -> 172 ;
173 [label="entropy = 0.0\nsamples = 2\nvalue = [0, 2]", fillcolor="#399de5ff"] ;
171 -> 173 ;
174 [label="X[57] <= 0.5\nentropy = 0.876\nsamples = 345\nvalue = [102, 243]", fillcolor="#399de594"] ;
160 -> 174 ;
175 [label="X[3] <= 14682.0\nentropy = 0.885\nsamples = 337\nvalue = [102, 235]", fillcolor="#399de590"] ;
174 -> 175 ;
176 [label="X[1] <= 31637.0\nentropy = 0.833\nsamples = 231\nvalue = [61, 170]", fillcolor="#399de5a4"] ;
175 -> 176 ;
177 [label="entropy = 0.0\nsamples = 3\nvalue = [3, 0]", fillcolor="#e58139ff"] ;
176 -> 177 ;
178 [label="X[1] <= 201267.5\nentropy = 0.818\nsamples = 228\nvalue = [58, 170]", fillcolor="#399de5a8"] ;
176 -> 178 ;
179 [label="entropy = 0.89\nsamples = 140\nvalue = [43, 97]", fillcolor="#399de58e"] ;
178 -> 179 ;
180 [label="entropy = 0.659\nsamples = 88\nvalue = [15, 73]", fillcolor="#399de5cb"] ;
178 -> 180 ;
181 [label="X[0] <= 53.0\nentropy = 0.963\nsamples = 106\nvalue = [41, 65]", fillcolor="#399de55e"] ;
175 -> 181 ;
182 [label="X[1] <= 223340.5\nentropy = 0.993\nsamples = 80\nvalue = [36, 44]", fillcolor="#399de52e"] ;
181 -> 182 ;
183 [label="entropy = 0.959\nsamples = 63\nvalue = [24, 39]", fillcolor="#399de562"] ;
182 -> 183 ;
184 [label="entropy = 0.874\nsamples = 17\nvalue = [12, 5]", fillcolor="#e5813995"] ;
182 -> 184 ;
185 [label="X[0] <= 71.0\nentropy = 0.706\nsamples = 26\nvalue = [5, 21]", fillcolor="#399de5c2"] ;
181 -> 185 ;
186 [label="entropy = 0.31\nsamples = 18\nvalue = [1, 17]", fillcolor="#399de5f0"] ;
185 -> 186 ;
187 [label="entropy = 1.0\nsamples = 8\nvalue = [4, 4]", fillcolor="#e5813900"] ;
185 -> 187 ;
188 [label="entropy = 0.0\nsamples = 8\nvalue = [0, 8]", fillcolor="#399de5ff"] ;
174 -> 188 ;
189 [label="X[24] <= 0.5\nentropy = 0.996\nsamples = 71\nvalue = [38, 33]", fillcolor="#e5813922"] ;
157 -> 189 ;
190 [label="X[1] <= 37852.0\nentropy = 0.995\nsamples = 61\nvalue = [28, 33]", fillcolor="#399de527"] ;
189 -> 190 ;
191 [label="entropy = 0.0\nsamples = 3\nvalue = [3, 0]", fillcolor="#e58139ff"] ;
190 -> 191 ;
192 [label="X[1] <= 69670.5\nentropy = 0.986\nsamples = 58\nvalue = [25, 33]", fillcolor="#399de53e"] ;
190 -> 192 ;
193 [label="entropy = 0.0\nsamples = 4\nvalue = [0, 4]", fillcolor="#399de5ff"] ;
192 -> 193 ;
194 [label="X[25] <= 0.5\nentropy = 0.996\nsamples = 54\nvalue = [25, 29]", fillcolor="#399de523"] ;
192 -> 194 ;
195 [label="X[0] <= 31.5\nentropy = 0.996\nsamples = 41\nvalue = [22, 19]", fillcolor="#e5813923"] ;
194 -> 195 ;
196 [label="X[0] <= 24.5\nentropy = 0.592\nsamples = 7\nvalue = [1, 6]", fillcolor="#399de5d4"] ;
195 -> 196 ;
197 [label="entropy = 0.0\nsamples = 1\nvalue = [1, 0]", fillcolor="#e58139ff"] ;
196 -> 197 ;
198 [label="entropy = 0.0\nsamples = 6\nvalue = [0, 6]", fillcolor="#399de5ff"] ;
196 -> 198 ;
199 [label="X[54] <= 0.5\nentropy = 0.96\nsamples = 34\nvalue = [21, 13]", fillcolor="#e5813961"] ;
195 -> 199 ;
200 [label="entropy = 0.894\nsamples = 29\nvalue = [20, 9]", fillcolor="#e581398c"] ;
199 -> 200 ;
201 [label="entropy = 0.722\nsamples = 5\nvalue = [1, 4]", fillcolor="#399de5bf"] ;
199 -> 201 ;
202 [label="X[0] <= 44.5\nentropy = 0.779\nsamples = 13\nvalue = [3, 10]", fillcolor="#399de5b3"] ;
194 -> 202 ;
203 [label="X[7] <= 0.5\nentropy = 0.985\nsamples = 7\nvalue = [3, 4]", fillcolor="#399de540"] ;
202 -> 203 ;
204 [label="entropy = 0.722\nsamples = 5\nvalue = [1, 4]", fillcolor="#399de5bf"] ;
203 -> 204 ;
205 [label="entropy = 0.0\nsamples = 2\nvalue = [2, 0]", fillcolor="#e58139ff"] ;
203 -> 205 ;
206 [label="entropy = 0.0\nsamples = 6\nvalue = [0, 6]", fillcolor="#399de5ff"] ;
202 -> 206 ;
207 [label="entropy = 0.0\nsamples = 10\nvalue = [10, 0]", fillcolor="#e58139ff"] ;
189 -> 207 ;
208 [label="X[2] <= 12.5\nentropy = 0.886\nsamples = 21055\nvalue = [14656, 6399]", fillcolor="#e5813990"] ;
0 -> 208 [labeldistance=2.5, labelangle=-45, headlabel="False"] ;
209 [label="X[3] <= 5095.5\nentropy = 0.771\nsamples = 14790\nvalue = [11448, 3342]", fillcolor="#e58139b5"] ;
208 -> 209 ;
210 [label="X[2] <= 8.5\nentropy = 0.727\nsamples = 14058\nvalue = [11210, 2848]", fillcolor="#e58139be"] ;
209 -> 210 ;
211 [label="X[0] <= 36.5\nentropy = 0.358\nsamples = 2296\nvalue = [2140, 156]", fillcolor="#e58139ec"] ;
210 -> 211 ;
212 [label="X[5] <= 49.5\nentropy = 0.196\nsamples = 725\nvalue = [703, 22]", fillcolor="#e58139f7"] ;
211 -> 212 ;
213 [label="X[48] <= 0.5\nentropy = 0.15\nsamples = 605\nvalue = [592, 13]", fillcolor="#e58139f9"] ;
212 -> 213 ;
214 [label="X[100] <= 0.5\nentropy = 0.132\nsamples = 600\nvalue = [589, 11]", fillcolor="#e58139fa"] ;
213 -> 214 ;
215 [label="X[87] <= 0.5\nentropy = 0.122\nsamples = 599\nvalue = [589, 10]", fillcolor="#e58139fb"] ;
214 -> 215 ;
216 [label="entropy = 0.113\nsamples = 598\nvalue = [589, 9]", fillcolor="#e58139fb"] ;
215 -> 216 ;
217 [label="entropy = 0.0\nsamples = 1\nvalue = [0, 1]", fillcolor="#399de5ff"] ;
215 -> 217 ;
218 [label="entropy = 0.0\nsamples = 1\nvalue = [0, 1]", fillcolor="#399de5ff"] ;
214 -> 218 ;
219 [label="X[1] <= 273083.5\nentropy = 0.971\nsamples = 5\nvalue = [3, 2]", fillcolor="#e5813955"] ;
213 -> 219 ;
220 [label="entropy = 0.0\nsamples = 3\nvalue = [3, 0]", fillcolor="#e58139ff"] ;
219 -> 220 ;
221 [label="entropy = 0.0\nsamples = 2\nvalue = [0, 2]", fillcolor="#399de5ff"] ;
219 -> 221 ;
222 [label="X[51] <= 0.5\nentropy = 0.384\nsamples = 120\nvalue = [111, 9]", fillcolor="#e58139ea"] ;
212 -> 222 ;
223 [label="X[5] <= 50.5\nentropy = 0.355\nsamples = 119\nvalue = [111, 8]", fillcolor="#e58139ed"] ;
222 -> 223 ;
224 [label="X[2] <= 3.5\nentropy = 0.583\nsamples = 43\nvalue = [37, 6]", fillcolor="#e58139d6"] ;
223 -> 224 ;
225 [label="entropy = 0.918\nsamples = 3\nvalue = [1, 2]", fillcolor="#399de57f"] ;
224 -> 225 ;
226 [label="entropy = 0.469\nsamples = 40\nvalue = [36, 4]", fillcolor="#e58139e3"] ;
224 -> 226 ;
227 [label="X[5] <= 67.5\nentropy = 0.176\nsamples = 76\nvalue = [74, 2]", fillcolor="#e58139f8"] ;
223 -> 227 ;
228 [label="entropy = 0.0\nsamples = 52\nvalue = [52, 0]", fillcolor="#e58139ff"] ;
227 -> 228 ;
229 [label="entropy = 0.414\nsamples = 24\nvalue = [22, 2]", fillcolor="#e58139e8"] ;
227 -> 229 ;
230 [label="entropy = 0.0\nsamples = 1\nvalue = [0, 1]", fillcolor="#399de5ff"] ;
222 -> 230 ;
231 [label="X[2] <= 5.5\nentropy = 0.421\nsamples = 1571\nvalue = [1437, 134]", fillcolor="#e58139e7"] ;
211 -> 231 ;
232 [label="X[5] <= 49.5\nentropy = 0.322\nsamples = 868\nvalue = [817, 51]", fillcolor="#e58139ef"] ;
231 -> 232 ;
233 [label="X[39] <= 0.5\nentropy = 0.238\nsamples = 716\nvalue = [688, 28]", fillcolor="#e58139f5"] ;
232 -> 233 ;
234 [label="X[9] <= 0.5\nentropy = 0.217\nsamples = 694\nvalue = [670, 24]", fillcolor="#e58139f6"] ;
233 -> 234 ;
235 [label="entropy = 0.198\nsamples = 683\nvalue = [662, 21]", fillcolor="#e58139f7"] ;
234 -> 235 ;
236 [label="entropy = 0.845\nsamples = 11\nvalue = [8, 3]", fillcolor="#e581399f"] ;
234 -> 236 ;
237 [label="X[8] <= 0.5\nentropy = 0.684\nsamples = 22\nvalue = [18, 4]", fillcolor="#e58139c6"] ;
233 -> 237 ;
238 [label="entropy = 0.0\nsamples = 12\nvalue = [12, 0]", fillcolor="#e58139ff"] ;
237 -> 238 ;
239 [label="entropy = 0.971\nsamples = 10\nvalue = [6, 4]", fillcolor="#e5813955"] ;
237 -> 239 ;
240 [label="X[5] <= 68.5\nentropy = 0.613\nsamples = 152\nvalue = [129, 23]", fillcolor="#e58139d2"] ;
232 -> 240 ;
241 [label="X[0] <= 63.5\nentropy = 0.696\nsamples = 112\nvalue = [91, 21]", fillcolor="#e58139c4"] ;
240 -> 241 ;
242 [label="entropy = 0.73\nsamples = 103\nvalue = [82, 21]", fillcolor="#e58139be"] ;
241 -> 242 ;
243 [label="entropy = 0.0\nsamples = 9\nvalue = [9, 0]", fillcolor="#e58139ff"] ;
241 -> 243 ;
244 [label="X[49] <= 0.5\nentropy = 0.286\nsamples = 40\nvalue = [38, 2]", fillcolor="#e58139f2"] ;
240 -> 244 ;
245 [label="entropy = 0.0\nsamples = 35\nvalue = [35, 0]", fillcolor="#e58139ff"] ;
244 -> 245 ;
246 [label="entropy = 0.971\nsamples = 5\nvalue = [3, 2]", fillcolor="#e5813955"] ;
244 -> 246 ;
247 [label="X[0] <= 65.5\nentropy = 0.524\nsamples = 703\nvalue = [620, 83]", fillcolor="#e58139dd"] ;
231 -> 247 ;
248 [label="X[4] <= 1794.0\nentropy = 0.554\nsamples = 645\nvalue = [562, 83]", fillcolor="#e58139d9"] ;
247 -> 248 ;
249 [label="X[45] <= 0.5\nentropy = 0.529\nsamples = 625\nvalue = [550, 75]", fillcolor="#e58139dc"] ;
248 -> 249 ;
250 [label="entropy = 0.518\nsamples = 620\nvalue = [548, 72]", fillcolor="#e58139dd"] ;
249 -> 250 ;
251 [label="entropy = 0.971\nsamples = 5\nvalue = [2, 3]", fillcolor="#399de555"] ;
249 -> 251 ;
252 [label="X[4] <= 1894.5\nentropy = 0.971\nsamples = 20\nvalue = [12, 8]", fillcolor="#e5813955"] ;
248 -> 252 ;
253 [label="entropy = 0.592\nsamples = 7\nvalue = [1, 6]", fillcolor="#399de5d4"] ;
252 -> 253 ;
254 [label="entropy = 0.619\nsamples = 13\nvalue = [11, 2]", fillcolor="#e58139d1"] ;
252 -> 254 ;
255 [label="entropy = 0.0\nsamples = 58\nvalue = [58, 0]", fillcolor="#e58139ff"] ;
247 -> 255 ;
256 [label="X[0] <= 35.5\nentropy = 0.776\nsamples = 11762\nvalue = [9070, 2692]", fillcolor="#e58139b3"] ;
210 -> 256 ;
257 [label="X[0] <= 24.5\nentropy = 0.605\nsamples = 3940\nvalue = [3357, 583]", fillcolor="#e58139d3"] ;
256 -> 257 ;
258 [label="X[5] <= 45.5\nentropy = 0.239\nsamples = 483\nvalue = [464, 19]", fillcolor="#e58139f5"] ;
257 -> 258 ;
259 [label="X[45] <= 0.5\nentropy = 0.143\nsamples = 396\nvalue = [388, 8]", fillcolor="#e58139fa"] ;
258 -> 259 ;
260 [label="X[0] <= 22.5\nentropy = 0.116\nsamples = 386\nvalue = [380, 6]", fillcolor="#e58139fb"] ;
259 -> 260 ;
261 [label="entropy = 0.0\nsamples = 162\nvalue = [162, 0]", fillcolor="#e58139ff"] ;
260 -> 261 ;
262 [label="entropy = 0.178\nsamples = 224\nvalue = [218, 6]", fillcolor="#e58139f8"] ;
260 -> 262 ;
263 [label="X[1] <= 228832.0\nentropy = 0.722\nsamples = 10\nvalue = [8, 2]", fillcolor="#e58139bf"] ;
259 -> 263 ;
264 [label="entropy = 0.0\nsamples = 6\nvalue = [6, 0]", fillcolor="#e58139ff"] ;
263 -> 264 ;
265 [label="entropy = 1.0\nsamples = 4\nvalue = [2, 2]", fillcolor="#e5813900"] ;
263 -> 265 ;
266 [label="X[49] <= 0.5\nentropy = 0.548\nsamples = 87\nvalue = [76, 11]", fillcolor="#e58139da"] ;
258 -> 266 ;
267 [label="X[2] <= 9.5\nentropy = 0.41\nsamples = 73\nvalue = [67, 6]", fillcolor="#e58139e8"] ;
266 -> 267 ;
268 [label="entropy = 0.156\nsamples = 44\nvalue = [43, 1]", fillcolor="#e58139f9"] ;
267 -> 268 ;
269 [label="entropy = 0.663\nsamples = 29\nvalue = [24, 5]", fillcolor="#e58139ca"] ;
267 -> 269 ;
270 [label="X[5] <= 49.5\nentropy = 0.94\nsamples = 14\nvalue = [9, 5]", fillcolor="#e5813971"] ;
266 -> 270 ;
271 [label="entropy = 0.0\nsamples = 2\nvalue = [0, 2]", fillcolor="#399de5ff"] ;
270 -> 271 ;
272 [label="entropy = 0.811\nsamples = 12\nvalue = [9, 3]", fillcolor="#e58139aa"] ;
270 -> 272 ;
273 [label="X[4] <= 1794.0\nentropy = 0.642\nsamples = 3457\nvalue = [2893, 564]", fillcolor="#e58139cd"] ;
257 -> 273 ;
274 [label="X[2] <= 9.5\nentropy = 0.621\nsamples = 3349\nvalue = [2831, 518]", fillcolor="#e58139d0"] ;
273 -> 274 ;
275 [label="X[5] <= 51.5\nentropy = 0.53\nsamples = 1871\nvalue = [1646, 225]", fillcolor="#e58139dc"] ;
274 -> 275 ;
276 [label="entropy = 0.493\nsamples = 1608\nvalue = [1435, 173]", fillcolor="#e58139e0"] ;
275 -> 276 ;
277 [label="entropy = 0.717\nsamples = 263\nvalue = [211, 52]", fillcolor="#e58139c0"] ;
275 -> 277 ;
278 [label="X[1] <= 166783.5\nentropy = 0.718\nsamples = 1478\nvalue = [1185, 293]", fillcolor="#e58139c0"] ;
274 -> 278 ;
279 [label="entropy = 0.609\nsamples = 655\nvalue = [557, 98]", fillcolor="#e58139d2"] ;
278 -> 279 ;
280 [label="entropy = 0.79\nsamples = 823\nvalue = [628, 195]", fillcolor="#e58139b0"] ;
278 -> 280 ;
281 [label="X[4] <= 1989.5\nentropy = 0.984\nsamples = 108\nvalue = [62, 46]", fillcolor="#e5813942"] ;
273 -> 281 ;
282 [label="X[49] <= 0.5\nentropy = 0.94\nsamples = 70\nvalue = [25, 45]", fillcolor="#399de571"] ;
281 -> 282 ;
283 [label="entropy = 0.854\nsamples = 61\nvalue = [17, 44]", fillcolor="#399de59c"] ;
282 -> 283 ;
284 [label="entropy = 0.503\nsamples = 9\nvalue = [8, 1]", fillcolor="#e58139df"] ;
282 -> 284 ;
285 [label="X[43] <= 0.5\nentropy = 0.176\nsamples = 38\nvalue = [37, 1]", fillcolor="#e58139f8"] ;
281 -> 285 ;
286 [label="entropy = 0.0\nsamples = 37\nvalue = [37, 0]", fillcolor="#e58139ff"] ;
285 -> 286 ;
287 [label="entropy = 0.0\nsamples = 1\nvalue = [0, 1]", fillcolor="#399de5ff"] ;
285 -> 287 ;
288 [label="X[4] <= 1782.5\nentropy = 0.841\nsamples = 7822\nvalue = [5713, 2109]", fillcolor="#e58139a1"] ;
256 -> 288 ;
289 [label="X[5] <= 34.5\nentropy = 0.821\nsamples = 7463\nvalue = [5553, 1910]", fillcolor="#e58139a7"] ;
288 -> 289 ;
290 [label="X[55] <= 0.5\nentropy = 0.512\nsamples = 684\nvalue = [606, 78]", fillcolor="#e58139de"] ;
289 -> 290 ;
291 [label="X[48] <= 0.5\nentropy = 0.361\nsamples = 510\nvalue = [475, 35]", fillcolor="#e58139ec"] ;
290 -> 291 ;
292 [label="entropy = 0.33\nsamples = 495\nvalue = [465, 30]", fillcolor="#e58139ef"] ;
291 -> 292 ;
293 [label="entropy = 0.918\nsamples = 15\nvalue = [10, 5]", fillcolor="#e581397f"] ;
291 -> 293 ;
294 [label="X[0] <= 60.5\nentropy = 0.807\nsamples = 174\nvalue = [131, 43]", fillcolor="#e58139ab"] ;
290 -> 294 ;
295 [label="entropy = 0.858\nsamples = 149\nvalue = [107, 42]", fillcolor="#e581399b"] ;
294 -> 295 ;
296 [label="entropy = 0.242\nsamples = 25\nvalue = [24, 1]", fillcolor="#e58139f4"] ;
294 -> 296 ;
297 [label="X[10] <= 0.5\nentropy = 0.842\nsamples = 6779\nvalue = [4947, 1832]", fillcolor="#e58139a1"] ;
289 -> 297 ;
298 [label="X[2] <= 9.5\nentropy = 0.863\nsamples = 5901\nvalue = [4214, 1687]", fillcolor="#e5813999"] ;
297 -> 298 ;
299 [label="entropy = 0.803\nsamples = 3246\nvalue = [2451, 795]", fillcolor="#e58139ac"] ;
298 -> 299 ;
300 [label="entropy = 0.921\nsamples = 2655\nvalue = [1763, 892]", fillcolor="#e581397e"] ;
298 -> 300 ;
301 [label="X[48] <= 0.5\nentropy = 0.646\nsamples = 878\nvalue = [733, 145]", fillcolor="#e58139cd"] ;
297 -> 301 ;
302 [label="entropy = 0.636\nsamples = 871\nvalue = [731, 140]", fillcolor="#e58139ce"] ;
301 -> 302 ;
303 [label="entropy = 0.863\nsamples = 7\nvalue = [2, 5]", fillcolor="#399de599"] ;
301 -> 303 ;
304 [label="X[4] <= 1989.5\nentropy = 0.991\nsamples = 359\nvalue = [160, 199]", fillcolor="#399de532"] ;
288 -> 304 ;
305 [label="X[0] <= 66.5\nentropy = 0.937\nsamples = 280\nvalue = [99, 181]", fillcolor="#399de574"] ;
304 -> 305 ;
306 [label="X[10] <= 0.5\nentropy = 0.931\nsamples = 277\nvalue = [96, 181]", fillcolor="#399de578"] ;
305 -> 306 ;
307 [label="entropy = 0.947\nsamples = 252\nvalue = [92, 160]", fillcolor="#399de56c"] ;
306 -> 307 ;
308 [label="entropy = 0.634\nsamples = 25\nvalue = [4, 21]", fillcolor="#399de5ce"] ;
306 -> 308 ;
309 [label="entropy = 0.0\nsamples = 3\nvalue = [3, 0]", fillcolor="#e58139ff"] ;
305 -> 309 ;
310 [label="X[4] <= 2161.5\nentropy = 0.774\nsamples = 79\nvalue = [61, 18]", fillcolor="#e58139b4"] ;
304 -> 310 ;
311 [label="entropy = 0.0\nsamples = 38\nvalue = [38, 0]", fillcolor="#e58139ff"] ;
310 -> 311 ;
312 [label="X[39] <= 0.5\nentropy = 0.989\nsamples = 41\nvalue = [23, 18]", fillcolor="#e5813937"] ;
310 -> 312 ;
313 [label="entropy = 0.918\nsamples = 33\nvalue = [22, 11]", fillcolor="#e581397f"] ;
312 -> 313 ;
314 [label="entropy = 0.544\nsamples = 8\nvalue = [1, 7]", fillcolor="#399de5db"] ;
312 -> 314 ;
315 [label="X[0] <= 62.5\nentropy = 0.91\nsamples = 732\nvalue = [238, 494]", fillcolor="#399de584"] ;
209 -> 315 ;
316 [label="X[7] <= 0.5\nentropy = 0.894\nsamples = 667\nvalue = [207, 460]", fillcolor="#399de58c"] ;
315 -> 316 ;
317 [label="X[52] <= 0.5\nentropy = 0.904\nsamples = 632\nvalue = [202, 430]", fillcolor="#399de587"] ;
316 -> 317 ;
318 [label="X[5] <= 12.5\nentropy = 0.902\nsamples = 630\nvalue = [200, 430]", fillcolor="#399de588"] ;
317 -> 318 ;
319 [label="entropy = 0.0\nsamples = 2\nvalue = [2, 0]", fillcolor="#e58139ff"] ;
318 -> 319 ;
320 [label="X[1] <= 21629.0\nentropy = 0.899\nsamples = 628\nvalue = [198, 430]", fillcolor="#399de58a"] ;
318 -> 320 ;
321 [label="entropy = 0.0\nsamples = 5\nvalue = [0, 5]", fillcolor="#399de5ff"] ;
320 -> 321 ;
322 [label="X[1] <= 72962.5\nentropy = 0.902\nsamples = 623\nvalue = [198, 425]", fillcolor="#399de588"] ;
320 -> 322 ;
323 [label="entropy = 0.986\nsamples = 65\nvalue = [28, 37]", fillcolor="#399de53e"] ;
322 -> 323 ;
324 [label="entropy = 0.887\nsamples = 558\nvalue = [170, 388]", fillcolor="#399de58f"] ;
322 -> 324 ;
325 [label="entropy = 0.0\nsamples = 2\nvalue = [2, 0]", fillcolor="#e58139ff"] ;
317 -> 325 ;
326 [label="X[1] <= 233289.5\nentropy = 0.592\nsamples = 35\nvalue = [5, 30]", fillcolor="#399de5d4"] ;
316 -> 326 ;
327 [label="X[36] <= 0.5\nentropy = 0.258\nsamples = 23\nvalue = [1, 22]", fillcolor="#399de5f3"] ;
326 -> 327 ;
328 [label="entropy = 0.0\nsamples = 21\nvalue = [0, 21]", fillcolor="#399de5ff"] ;
327 -> 328 ;
329 [label="X[1] <= 125245.0\nentropy = 1.0\nsamples = 2\nvalue = [1, 1]", fillcolor="#e5813900"] ;
327 -> 329 ;
330 [label="entropy = 0.0\nsamples = 1\nvalue = [0, 1]", fillcolor="#399de5ff"] ;
329 -> 330 ;
331 [label="entropy = 0.0\nsamples = 1\nvalue = [1, 0]", fillcolor="#e58139ff"] ;
329 -> 331 ;
332 [label="X[0] <= 49.0\nentropy = 0.918\nsamples = 12\nvalue = [4, 8]", fillcolor="#399de57f"] ;
326 -> 332 ;
333 [label="X[1] <= 413267.5\nentropy = 0.722\nsamples = 10\nvalue = [2, 8]", fillcolor="#399de5bf"] ;
332 -> 333 ;
334 [label="entropy = 0.0\nsamples = 7\nvalue = [0, 7]", fillcolor="#399de5ff"] ;
333 -> 334 ;
335 [label="X[5] <= 39.0\nentropy = 0.918\nsamples = 3\nvalue = [2, 1]", fillcolor="#e581397f"] ;
333 -> 335 ;
336 [label="entropy = 0.0\nsamples = 1\nvalue = [0, 1]", fillcolor="#399de5ff"] ;
335 -> 336 ;
337 [label="entropy = 0.0\nsamples = 2\nvalue = [2, 0]", fillcolor="#e58139ff"] ;
335 -> 337 ;
338 [label="entropy = 0.0\nsamples = 2\nvalue = [2, 0]", fillcolor="#e58139ff"] ;
332 -> 338 ;
339 [label="X[5] <= 13.5\nentropy = 0.998\nsamples = 65\nvalue = [31, 34]", fillcolor="#399de517"] ;
315 -> 339 ;
340 [label="entropy = 0.0\nsamples = 5\nvalue = [0, 5]", fillcolor="#399de5ff"] ;
339 -> 340 ;
341 [label="X[5] <= 46.5\nentropy = 0.999\nsamples = 60\nvalue = [31, 29]", fillcolor="#e5813910"] ;
339 -> 341 ;
342 [label="X[101] <= 0.5\nentropy = 0.959\nsamples = 42\nvalue = [26, 16]", fillcolor="#e5813962"] ;
341 -> 342 ;
343 [label="entropy = 0.0\nsamples = 3\nvalue = [0, 3]", fillcolor="#399de5ff"] ;
342 -> 343 ;
344 [label="X[3] <= 17537.5\nentropy = 0.918\nsamples = 39\nvalue = [26, 13]", fillcolor="#e581397f"] ;
342 -> 344 ;
345 [label="X[0] <= 68.5\nentropy = 0.784\nsamples = 30\nvalue = [23, 7]", fillcolor="#e58139b1"] ;
344 -> 345 ;
346 [label="entropy = 0.918\nsamples = 21\nvalue = [14, 7]", fillcolor="#e581397f"] ;
345 -> 346 ;
347 [label="entropy = 0.0\nsamples = 9\nvalue = [9, 0]", fillcolor="#e58139ff"] ;
345 -> 347 ;
348 [label="X[1] <= 118486.0\nentropy = 0.918\nsamples = 9\nvalue = [3, 6]", fillcolor="#399de57f"] ;
344 -> 348 ;
349 [label="entropy = 0.0\nsamples = 3\nvalue = [3, 0]", fillcolor="#e58139ff"] ;
348 -> 349 ;
350 [label="entropy = 0.0\nsamples = 6\nvalue = [0, 6]", fillcolor="#399de5ff"] ;
348 -> 350 ;
351 [label="X[1] <= 264749.5\nentropy = 0.852\nsamples = 18\nvalue = [5, 13]", fillcolor="#399de59d"] ;
341 -> 351 ;
352 [label="X[8] <= 0.5\nentropy = 0.696\nsamples = 16\nvalue = [3, 13]", fillcolor="#399de5c4"] ;
351 -> 352 ;
353 [label="entropy = 0.0\nsamples = 8\nvalue = [0, 8]", fillcolor="#399de5ff"] ;
352 -> 353 ;
354 [label="X[3] <= 7032.5\nentropy = 0.954\nsamples = 8\nvalue = [3, 5]", fillcolor="#399de566"] ;
352 -> 354 ;
355 [label="entropy = 0.0\nsamples = 2\nvalue = [2, 0]", fillcolor="#e58139ff"] ;
354 -> 355 ;
356 [label="entropy = 0.65\nsamples = 6\nvalue = [1, 5]", fillcolor="#399de5cc"] ;
354 -> 356 ;
357 [label="entropy = 0.0\nsamples = 2\nvalue = [2, 0]", fillcolor="#e58139ff"] ;
351 -> 357 ;
358 [label="X[3] <= 5095.5\nentropy = 1.0\nsamples = 6265\nvalue = [3208, 3057]", fillcolor="#e581390c"] ;
208 -> 358 ;
359 [label="X[4] <= 1782.5\nentropy = 0.994\nsamples = 5313\nvalue = [2894, 2419]", fillcolor="#e581392a"] ;
358 -> 359 ;
360 [label="X[5] <= 31.5\nentropy = 0.986\nsamples = 4759\nvalue = [2706, 2053]", fillcolor="#e581393e"] ;
359 -> 360 ;
361 [label="X[55] <= 0.5\nentropy = 0.786\nsamples = 371\nvalue = [284, 87]", fillcolor="#e58139b1"] ;
360 -> 361 ;
362 [label="X[0] <= 29.5\nentropy = 0.697\nsamples = 266\nvalue = [216, 50]", fillcolor="#e58139c4"] ;
361 -> 362 ;
363 [label="entropy = 0.0\nsamples = 30\nvalue = [30, 0]", fillcolor="#e58139ff"] ;
362 -> 363 ;
364 [label="X[1] <= 102522.5\nentropy = 0.745\nsamples = 236\nvalue = [186, 50]", fillcolor="#e58139ba"] ;
362 -> 364 ;
365 [label="X[0] <= 52.5\nentropy = 0.353\nsamples = 45\nvalue = [42, 3]", fillcolor="#e58139ed"] ;
364 -> 365 ;
366 [label="entropy = 0.0\nsamples = 20\nvalue = [20, 0]", fillcolor="#e58139ff"] ;
365 -> 366 ;
367 [label="entropy = 0.529\nsamples = 25\nvalue = [22, 3]", fillcolor="#e58139dc"] ;
365 -> 367 ;
368 [label="X[48] <= 0.5\nentropy = 0.805\nsamples = 191\nvalue = [144, 47]", fillcolor="#e58139ac"] ;
364 -> 368 ;
369 [label="entropy = 0.77\nsamples = 182\nvalue = [141, 41]", fillcolor="#e58139b5"] ;
368 -> 369 ;
370 [label="entropy = 0.918\nsamples = 9\nvalue = [3, 6]", fillcolor="#399de57f"] ;
368 -> 370 ;
371 [label="X[1] <= 189552.5\nentropy = 0.936\nsamples = 105\nvalue = [68, 37]", fillcolor="#e5813974"] ;
361 -> 371 ;
372 [label="X[5] <= 4.5\nentropy = 0.866\nsamples = 73\nvalue = [52, 21]", fillcolor="#e5813998"] ;
371 -> 372 ;
373 [label="entropy = 0.0\nsamples = 2\nvalue = [0, 2]", fillcolor="#399de5ff"] ;
372 -> 373 ;
374 [label="X[1] <= 175674.5\nentropy = 0.838\nsamples = 71\nvalue = [52, 19]", fillcolor="#e58139a2"] ;
372 -> 374 ;
375 [label="entropy = 0.883\nsamples = 63\nvalue = [44, 19]", fillcolor="#e5813991"] ;
374 -> 375 ;
376 [label="entropy = 0.0\nsamples = 8\nvalue = [8, 0]", fillcolor="#e58139ff"] ;
374 -> 376 ;
377 [label="X[1] <= 268510.0\nentropy = 1.0\nsamples = 32\nvalue = [16, 16]", fillcolor="#e5813900"] ;
371 -> 377 ;
378 [label="X[0] <= 58.5\nentropy = 0.831\nsamples = 19\nvalue = [5, 14]", fillcolor="#399de5a4"] ;
377 -> 378 ;
379 [label="entropy = 0.592\nsamples = 14\nvalue = [2, 12]", fillcolor="#399de5d4"] ;
378 -> 379 ;
380 [label="entropy = 0.971\nsamples = 5\nvalue = [3, 2]", fillcolor="#e5813955"] ;
378 -> 380 ;
381 [label="X[0] <= 46.5\nentropy = 0.619\nsamples = 13\nvalue = [11, 2]", fillcolor="#e58139d1"] ;
377 -> 381 ;
382 [label="entropy = 0.0\nsamples = 10\nvalue = [10, 0]", fillcolor="#e58139ff"] ;
381 -> 382 ;
383 [label="entropy = 0.918\nsamples = 3\nvalue = [1, 2]", fillcolor="#399de57f"] ;
381 -> 383 ;
384 [label="X[3] <= 4447.0\nentropy = 0.992\nsamples = 4388\nvalue = [2422, 1966]", fillcolor="#e5813930"] ;
360 -> 384 ;
385 [label="X[0] <= 25.5\nentropy = 0.993\nsamples = 4359\nvalue = [2393, 1966]", fillcolor="#e581392e"] ;
384 -> 385 ;
386 [label="X[5] <= 43.5\nentropy = 0.662\nsamples = 93\nvalue = [77, 16]", fillcolor="#e58139ca"] ;
385 -> 386 ;
387 [label="X[9] <= 0.5\nentropy = 0.454\nsamples = 63\nvalue = [57, 6]", fillcolor="#e58139e4"] ;
386 -> 387 ;
388 [label="entropy = 0.404\nsamples = 62\nvalue = [57, 5]", fillcolor="#e58139e9"] ;
387 -> 388 ;
389 [label="entropy = 0.0\nsamples = 1\nvalue = [0, 1]", fillcolor="#399de5ff"] ;
387 -> 389 ;
390 [label="X[1] <= 312041.5\nentropy = 0.918\nsamples = 30\nvalue = [20, 10]", fillcolor="#e581397f"] ;
386 -> 390 ;
391 [label="entropy = 0.826\nsamples = 27\nvalue = [20, 7]", fillcolor="#e58139a6"] ;
390 -> 391 ;
392 [label="entropy = 0.0\nsamples = 3\nvalue = [0, 3]", fillcolor="#399de5ff"] ;
390 -> 392 ;
393 [label="X[4] <= 1532.0\nentropy = 0.995\nsamples = 4266\nvalue = [2316, 1950]", fillcolor="#e5813928"] ;
385 -> 393 ;
394 [label="X[39] <= 0.5\nentropy = 0.995\nsamples = 4241\nvalue = [2291, 1950]", fillcolor="#e5813926"] ;
393 -> 394 ;
395 [label="entropy = 0.988\nsamples = 3025\nvalue = [1711, 1314]", fillcolor="#e581393b"] ;
394 -> 395 ;
396 [label="entropy = 0.998\nsamples = 1216\nvalue = [580, 636]", fillcolor="#399de516"] ;
394 -> 396 ;
397 [label="entropy = 0.0\nsamples = 25\nvalue = [25, 0]", fillcolor="#e58139ff"] ;
393 -> 397 ;
398 [label="entropy = 0.0\nsamples = 29\nvalue = [29, 0]", fillcolor="#e58139ff"] ;
384 -> 398 ;
399 [label="X[4] <= 1867.5\nentropy = 0.924\nsamples = 554\nvalue = [188, 366]", fillcolor="#399de57c"] ;
359 -> 399 ;
400 [label="X[0] <= 31.0\nentropy = 0.426\nsamples = 23\nvalue = [2, 21]", fillcolor="#399de5e7"] ;
399 -> 400 ;
401 [label="X[39] <= 0.5\nentropy = 1.0\nsamples = 4\nvalue = [2, 2]", fillcolor="#e5813900"] ;
400 -> 401 ;
402 [label="entropy = 0.0\nsamples = 2\nvalue = [0, 2]", fillcolor="#399de5ff"] ;
401 -> 402 ;
403 [label="entropy = 0.0\nsamples = 2\nvalue = [2, 0]", fillcolor="#e58139ff"] ;
401 -> 403 ;
404 [label="entropy = 0.0\nsamples = 19\nvalue = [0, 19]", fillcolor="#399de5ff"] ;
400 -> 404 ;
405 [label="X[23] <= 0.5\nentropy = 0.934\nsamples = 531\nvalue = [186, 345]", fillcolor="#399de576"] ;
399 -> 405 ;
406 [label="X[5] <= 77.5\nentropy = 0.947\nsamples = 484\nvalue = [177, 307]", fillcolor="#399de56c"] ;
405 -> 406 ;
407 [label="X[0] <= 67.5\nentropy = 0.951\nsamples = 478\nvalue = [177, 301]", fillcolor="#399de569"] ;
406 -> 407 ;
408 [label="X[0] <= 60.5\nentropy = 0.956\nsamples = 467\nvalue = [176, 291]", fillcolor="#399de565"] ;
407 -> 408 ;
409 [label="entropy = 0.946\nsamples = 451\nvalue = [164, 287]", fillcolor="#399de56d"] ;
408 -> 409 ;
410 [label="entropy = 0.811\nsamples = 16\nvalue = [12, 4]", fillcolor="#e58139aa"] ;
408 -> 410 ;
411 [label="X[2] <= 14.5\nentropy = 0.439\nsamples = 11\nvalue = [1, 10]", fillcolor="#399de5e6"] ;
407 -> 411 ;
412 [label="entropy = 0.0\nsamples = 8\nvalue = [0, 8]", fillcolor="#399de5ff"] ;
411 -> 412 ;
413 [label="entropy = 0.918\nsamples = 3\nvalue = [1, 2]", fillcolor="#399de57f"] ;
411 -> 413 ;
414 [label="entropy = 0.0\nsamples = 6\nvalue = [0, 6]", fillcolor="#399de5ff"] ;
406 -> 414 ;
415 [label="X[9] <= 0.5\nentropy = 0.705\nsamples = 47\nvalue = [9, 38]", fillcolor="#399de5c3"] ;
405 -> 415 ;
416 [label="X[49] <= 0.5\nentropy = 0.592\nsamples = 42\nvalue = [6, 36]", fillcolor="#399de5d4"] ;
415 -> 416 ;
417 [label="X[1] <= 201663.0\nentropy = 0.535\nsamples = 41\nvalue = [5, 36]", fillcolor="#399de5dc"] ;
416 -> 417 ;
418 [label="entropy = 0.738\nsamples = 24\nvalue = [5, 19]", fillcolor="#399de5bc"] ;
417 -> 418 ;
419 [label="entropy = 0.0\nsamples = 17\nvalue = [0, 17]", fillcolor="#399de5ff"] ;
417 -> 419 ;
420 [label="entropy = 0.0\nsamples = 1\nvalue = [1, 0]", fillcolor="#e58139ff"] ;
416 -> 420 ;
421 [label="X[5] <= 57.5\nentropy = 0.971\nsamples = 5\nvalue = [3, 2]", fillcolor="#e5813955"] ;
415 -> 421 ;
422 [label="entropy = 0.0\nsamples = 2\nvalue = [2, 0]", fillcolor="#e58139ff"] ;
421 -> 422 ;
423 [label="X[4] <= 2078.0\nentropy = 0.918\nsamples = 3\nvalue = [1, 2]", fillcolor="#399de57f"] ;
421 -> 423 ;
424 [label="entropy = 0.0\nsamples = 2\nvalue = [0, 2]", fillcolor="#399de5ff"] ;
423 -> 424 ;
425 [label="entropy = 0.0\nsamples = 1\nvalue = [1, 0]", fillcolor="#e58139ff"] ;
423 -> 425 ;
426 [label="X[0] <= 57.5\nentropy = 0.915\nsamples = 952\nvalue = [314, 638]", fillcolor="#399de581"] ;
358 -> 426 ;
427 [label="X[1] <= 202097.5\nentropy = 0.894\nsamples = 805\nvalue = [250, 555]", fillcolor="#399de58c"] ;
426 -> 427 ;
428 [label="X[1] <= 198216.5\nentropy = 0.846\nsamples = 505\nvalue = [138, 367]", fillcolor="#399de59f"] ;
427 -> 428 ;
429 [label="X[47] <= 0.5\nentropy = 0.862\nsamples = 484\nvalue = [138, 346]", fillcolor="#399de599"] ;
428 -> 429 ;
430 [label="X[8] <= 0.5\nentropy = 0.834\nsamples = 434\nvalue = [115, 319]", fillcolor="#399de5a3"] ;
429 -> 430 ;
431 [label="X[1] <= 195620.5\nentropy = 0.913\nsamples = 180\nvalue = [59, 121]", fillcolor="#399de583"] ;
430 -> 431 ;
432 [label="entropy = 0.905\nsamples = 178\nvalue = [57, 121]", fillcolor="#399de587"] ;
431 -> 432 ;
433 [label="entropy = 0.0\nsamples = 2\nvalue = [2, 0]", fillcolor="#e58139ff"] ;
431 -> 433 ;
434 [label="X[1] <= 191774.5\nentropy = 0.761\nsamples = 254\nvalue = [56, 198]", fillcolor="#399de5b7"] ;
430 -> 434 ;
435 [label="entropy = 0.782\nsamples = 241\nvalue = [56, 185]", fillcolor="#399de5b2"] ;
434 -> 435 ;
436 [label="entropy = 0.0\nsamples = 13\nvalue = [0, 13]", fillcolor="#399de5ff"] ;
434 -> 436 ;
437 [label="X[5] <= 49.0\nentropy = 0.995\nsamples = 50\nvalue = [23, 27]", fillcolor="#399de526"] ;
429 -> 437 ;
438 [label="X[0] <= 35.5\nentropy = 0.904\nsamples = 25\nvalue = [17, 8]", fillcolor="#e5813987"] ;
437 -> 438 ;
439 [label="entropy = 0.0\nsamples = 5\nvalue = [5, 0]", fillcolor="#e58139ff"] ;
438 -> 439 ;
440 [label="entropy = 0.971\nsamples = 20\nvalue = [12, 8]", fillcolor="#e5813955"] ;
438 -> 440 ;
441 [label="X[1] <= 60542.5\nentropy = 0.795\nsamples = 25\nvalue = [6, 19]", fillcolor="#399de5ae"] ;
437 -> 441 ;
442 [label="entropy = 0.0\nsamples = 2\nvalue = [2, 0]", fillcolor="#e58139ff"] ;
441 -> 442 ;
443 [label="entropy = 0.667\nsamples = 23\nvalue = [4, 19]", fillcolor="#399de5c9"] ;
441 -> 443 ;
444 [label="entropy = 0.0\nsamples = 21\nvalue = [0, 21]", fillcolor="#399de5ff"] ;
428 -> 444 ;
445 [label="X[1] <= 219668.5\nentropy = 0.953\nsamples = 300\nvalue = [112, 188]", fillcolor="#399de567"] ;
427 -> 445 ;
446 [label="X[1] <= 216138.0\nentropy = 1.0\nsamples = 55\nvalue = [28, 27]", fillcolor="#e5813909"] ;
445 -> 446 ;
447 [label="X[25] <= 0.5\nentropy = 0.992\nsamples = 49\nvalue = [22, 27]", fillcolor="#399de52f"] ;
446 -> 447 ;
448 [label="X[101] <= 0.5\nentropy = 0.996\nsamples = 39\nvalue = [21, 18]", fillcolor="#e5813924"] ;
447 -> 448 ;
449 [label="entropy = 0.0\nsamples = 4\nvalue = [4, 0]", fillcolor="#e58139ff"] ;
448 -> 449 ;
450 [label="entropy = 0.999\nsamples = 35\nvalue = [17, 18]", fillcolor="#399de50e"] ;
448 -> 450 ;
451 [label="X[6] <= 0.5\nentropy = 0.469\nsamples = 10\nvalue = [1, 9]", fillcolor="#399de5e3"] ;
447 -> 451 ;
452 [label="entropy = 0.0\nsamples = 9\nvalue = [0, 9]", fillcolor="#399de5ff"] ;
451 -> 452 ;
453 [label="entropy = 0.0\nsamples = 1\nvalue = [1, 0]", fillcolor="#e58139ff"] ;
451 -> 453 ;
454 [label="entropy = 0.0\nsamples = 6\nvalue = [6, 0]", fillcolor="#e58139ff"] ;
446 -> 454 ;
455 [label="X[47] <= 0.5\nentropy = 0.928\nsamples = 245\nvalue = [84, 161]", fillcolor="#399de57a"] ;
445 -> 455 ;
456 [label="X[58] <= 0.5\nentropy = 0.953\nsamples = 204\nvalue = [76, 128]", fillcolor="#399de568"] ;
455 -> 456 ;
457 [label="X[48] <= 0.5\nentropy = 0.94\nsamples = 196\nvalue = [70, 126]", fillcolor="#399de571"] ;
456 -> 457 ;
458 [label="entropy = 0.928\nsamples = 192\nvalue = [66, 126]", fillcolor="#399de579"] ;
457 -> 458 ;
459 [label="entropy = 0.0\nsamples = 4\nvalue = [4, 0]", fillcolor="#e58139ff"] ;
457 -> 459 ;
460 [label="X[5] <= 45.0\nentropy = 0.811\nsamples = 8\nvalue = [6, 2]", fillcolor="#e58139aa"] ;
456 -> 460 ;
461 [label="entropy = 0.918\nsamples = 3\nvalue = [1, 2]", fillcolor="#399de57f"] ;
460 -> 461 ;
462 [label="entropy = 0.0\nsamples = 5\nvalue = [5, 0]", fillcolor="#e58139ff"] ;
460 -> 462 ;
463 [label="X[10] <= 0.5\nentropy = 0.712\nsamples = 41\nvalue = [8, 33]", fillcolor="#399de5c1"] ;
455 -> 463 ;
464 [label="X[0] <= 53.0\nentropy = 0.776\nsamples = 35\nvalue = [8, 27]", fillcolor="#399de5b3"] ;
463 -> 464 ;
465 [label="entropy = 0.837\nsamples = 30\nvalue = [8, 22]", fillcolor="#399de5a2"] ;
464 -> 465 ;
466 [label="entropy = 0.0\nsamples = 5\nvalue = [0, 5]", fillcolor="#399de5ff"] ;
464 -> 466 ;
467 [label="entropy = 0.0\nsamples = 6\nvalue = [0, 6]", fillcolor="#399de5ff"] ;
463 -> 467 ;
468 [label="X[1] <= 386918.0\nentropy = 0.988\nsamples = 147\nvalue = [64, 83]", fillcolor="#399de53a"] ;
426 -> 468 ;
469 [label="X[1] <= 336189.5\nentropy = 0.983\nsamples = 144\nvalue = [61, 83]", fillcolor="#399de544"] ;
468 -> 469 ;
470 [label="X[6] <= 0.5\nentropy = 0.99\nsamples = 138\nvalue = [61, 77]", fillcolor="#399de535"] ;
469 -> 470 ;
471 [label="X[0] <= 63.5\nentropy = 0.986\nsamples = 135\nvalue = [58, 77]", fillcolor="#399de53f"] ;
470 -> 471 ;
472 [label="X[22] <= 0.5\nentropy = 0.999\nsamples = 64\nvalue = [33, 31]", fillcolor="#e581390f"] ;
471 -> 472 ;
473 [label="entropy = 0.907\nsamples = 31\nvalue = [21, 10]", fillcolor="#e5813986"] ;
472 -> 473 ;
474 [label="entropy = 0.946\nsamples = 33\nvalue = [12, 21]", fillcolor="#399de56d"] ;
472 -> 474 ;
475 [label="X[23] <= 0.5\nentropy = 0.936\nsamples = 71\nvalue = [25, 46]", fillcolor="#399de574"] ;
471 -> 475 ;
476 [label="entropy = 0.969\nsamples = 63\nvalue = [25, 38]", fillcolor="#399de557"] ;
475 -> 476 ;
477 [label="entropy = 0.0\nsamples = 8\nvalue = [0, 8]", fillcolor="#399de5ff"] ;
475 -> 477 ;
478 [label="entropy = 0.0\nsamples = 3\nvalue = [3, 0]", fillcolor="#e58139ff"] ;
470 -> 478 ;
479 [label="entropy = 0.0\nsamples = 6\nvalue = [0, 6]", fillcolor="#399de5ff"] ;
469 -> 479 ;
480 [label="entropy = 0.0\nsamples = 3\nvalue = [3, 0]", fillcolor="#e58139ff"] ;
468 -> 480 ;
}